svm_type c_svc
kernel_type rbf
gamma 1
nr_class 5
total_sv 1113
rho 0.47734992691023564 0.17354439087307902 0.020762778697596729 0.012322517088246941 -0.58097805076156106 0.24017259257609611 -0.15028891017238066 0.046005350623207479 -0.11523737895848124 0.077471479507419394
label 0 1 2 3 4
probA -5.3556390597608194 -3.213494243246203 -6.5071458702948384 -5.282012472311111 -8.9739667638953033 -5.7330689422164367 -4.7064584692116664 -5.7783004526983293 -3.9057902213204096 -6.4940600885289985
probB -0.081652976358695312 -0.029903743031204792 -0.26307455111334971 0.51832321868496534 -2.3579857518035494 -0.15017250942890431 0.35621916102874596 0.25968026235879393 -0.1431197111845515 0.64615563973260437
nr_sv 146 381 459 57 70
SV
0.49455800932863608 1 0 0.22637413298952158 1:1 2:0.17119192 3:-0.15363406 4:-0.14500362 5:0.5625 6:0.58950895 7:1.3690476 
0 1 0 0 1:1 2:0.55032963 3:-0.25062907 4:-0.28756726 5:0.5625 6:0.39017856 7:0.48730159 
1 0 0.24986962727787235 0 1:1 2:-0.61698902 3:0.67076027 4:-0.63257009 5:0.5625 6:0.059374999 7:0.59682542 
1 1 0 1 1:1 2:0.44098809 3:0.33661804 4:0.21155125 5:0.5625 6:0.2734375 7:0.28492063 
0.43192860082607881 0.65835218831673503 0.45480855052015651 0.81065895541974442 1:1 2:-0.028772887 3:0.24278112 4:0.23074776 5:0.5625 6:0.48214287 7:1.1507937 
0 1 0 0 1:1 2:0.086666442 3:-0.035974246 4:0.012183787 5:0.5625 6:0.38370535 7:1.1892858 
1 1 0 0 1:1 2:0.34665447 3:-0.063424811 4:-0.049162533 5:0.5625 6:0.042187501 7:0.60595238 
1 1 0 0 1:1 2:0.57784659 3:0.044257347 4:0.063441381 5:0.5625 6:0.09754464 7:0.25198412 
0 1 0 0 1:1 2:0.42270625 3:-0.24012297 4:-0.2413395 5:0.5625 6:0.47745535 7:0.79920638 
0 0 0 0.41821543032133129 1:1 2:0.60807335 3:-0.63841808 4:-0.64102924 5:1.7777778 6:0.15396826 7:0.13124999 
0 0 0.55005645508282042 0 1:1 2:-0.20824777 3:0.80175281 4:-0.2531133 5:0.5625 6:0.038392857 7:0.075000003 
1 1 0 0 1:1 2:0.786008 3:-0.42778626 4:-0.37808239 5:0.5625 6:0.14933036 7:0.13611111 
1 1 0 0 1:1 2:0.45314136 3:-0.16301684 4:-0.15797859 5:0.5625 6:0.73705357 7:0.67777777 
0.13663555436750402 0 0.63877228004967701 0 1:1 2:-0.50745738 3:0.49954039 4:-0.56427711 5:0.5625 6:0.48281249 7:0.91190475 
1 1 0 0 1:1 2:0.3317726 3:0.24755338 4:0.011410854 5:0.5625 6:0.12633929 7:0.47619048 
0.11251157745479148 0.32463347243149526 1 0.92025595489312773 1:1 2:0.33751991 3:0.099413387 4:0.066833399 5:1.7777778 6:0.82420635 7:0.47566965 
1 1 0 0 1:1 2:0.65247393 3:-0.051145803 4:0.056299172 5:0.5625 6:0.15245536 7:0.013095238 
0.13229104229413458 0 0.64668901220647013 0 1:1 2:-0.31107765 3:-0.041116368 4:0.20820116 5:0.5625 6:0.9542411 7:0.2531746 
1 1 0.63338821330562189 0 1:1 2:-0.019233741 3:0.1929626 4:-0.066428125 5:0.5625 6:0.1046875 7:1.3325397 
0 1 0 0 1:1 2:0.39955837 3:0.30932987 4:0.036428597 5:0.5625 6:0.14910714 7:0.12301587 
0 1 0 0 1:1 2:0.2078795 3:-0.20586884 4:-0.22482009 5:0.5625 6:0.20133929 7:0.88055557 
1 1 0 0 1:1 2:0.77621996 3:-0.42469668 4:-0.43234506 5:0.5625 6:0.41473213 7:0.33373016 
1 1 0 0 1:1 2:0.70888382 3:-0.18701407 4:-0.17500375 5:0.5625 6:0.65602678 7:0.18769841 
0 1 0 0.55923422196744565 1:1 2:0.24915461 3:0.38745046 4:0.32038751 5:0.5625 6:0.20200893 7:0.36309522 
1 1 0 0.018161103343096542 1:1 2:0.58627874 3:-0.35563141 4:-0.30474243 5:0.5625 6:0.69598216 7:0.81587303 
0 1 0 0 1:1 2:0.42663711 3:-0.079248101 4:-0.24508464 5:0.5625 6:0.63549107 7:0.61507934 
0 0 1 0 1:1 2:0.02206284 3:0.2483642 4:0.015164417 5:1.7777778 6:0.47698411 7:0.24955358 
1 1 0 0 1:1 2:0.88407254 3:-0.54497206 4:-0.57265824 5:0.5625 6:0.16049106 7:0.17896825 
1 1 0 0 1:1 2:0.82562786 3:-0.34091106 4:-0.33066669 5:0.5625 6:0.14933036 7:0.19404761 
1 1 0 0 1:1 2:0.36462432 3:0.015203896 4:-0.1519646 5:0.5625 6:0.18526785 7:0.77976191 
0 0 0.0061397900754508756 0 1:1 2:-0.098707542 3:0.037742335 4:-0.086593091 5:0.5625 6:1.0236607 7:1.2785715 
0 1 0 0 1:1 2:0.56276417 3:-0.26059753 4:-0.30045408 5:0.5625 6:0.24843749 7:0.41468254 
1 0 0 0 1:1 2:-0.55843669 3:0.56275827 4:-0.52718753 5:0.5625 6:0.33437499 7:0.84722221 
0 0 0.22934027321029812 0 1:1 2:-0.26663974 3:-0.23878121 4:0.3311758 5:0.5625 6:0.103125 7:0.033333335 
0 1 0 0 1:1 2:0.25780696 3:-0.26664349 4:-0.11561314 5:0.5625 6:0.050892856 7:0.66904759 
0 1 0 0 1:1 2:0.62469852 3:-0.36959377 4:-0.39951152 5:1.7777778 6:0.1404762 7:0.13839285 
1 1 0 0 1:1 2:0.76599514 3:-0.290093 4:-0.26870474 5:0.5625 6:0.12767857 7:0.050000001 
1 1 0 0 1:1 2:0.32541209 3:0.067898892 4:0.12321475 5:0.5625 6:0.55424106 7:0.55079365 
0.99029401817633522 1 0 0.038028013424870361 1:1 2:0.80096179 3:-0.78128785 4:-0.80190444 5:0.5625 6:0.52388394 7:0.16626984 
1 1 0 0 1:1 2:0.40035611 3:-0.11256944 4:-0.11257814 5:0.5625 6:0.56339288 7:0.84603173 
1 1 0 0 1:1 2:0.64503819 3:-0.32456478 4:-0.29325661 5:0.5625 6:0.19352679 7:0.31309524 
0 0 0.014670265786572111 0 1:1 2:-0.064405084 3:-0.13871768 4:0.15803216 5:1.7777778 6:0.4861111 7:0.067857146 
1 1 0 0 1:1 2:0.68773991 3:-0.49560121 4:-0.43324926 5:0.5625 6:0.30156249 7:0.45674604 
0 1 0 0 1:1 2:0.55174762 3:-0.1277722 4:-0.052557159 5:0.5625 6:0.16227679 7:0.12738095 
1 1 0 0 1:1 2:0.77296275 3:-0.28571707 4:-0.34233761 5:0.5625 6:0.16071428 7:0.1420635 
1 1 0 0 1:1 2:0.76288074 3:-0.26483759 4:-0.30329952 5:0.5625 6:0.74553573 7:0.27500001 
1 1 0 0 1:1 2:0.73191053 3:-0.11318246 4:-0.25142172 5:0.5625 6:0.46808037 7:0.11269841 
1 1 0.024774877690112589 1 1:1 2:0.77165216 3:-0.53595847 4:-0.61400676 5:1.7777778 6:0.23849206 7:0.088392854 
0 1 0 0 1:1 2:0.042294972 3:0.066128328 4:0.023917463 5:0.5625 6:0.10825893 7:0.80952382 
1 1 0 0 1:1 2:0.82713509 3:-0.46432683 4:-0.45673606 5:0.5625 6:0.15200894 7:0.36071429 
1 1 0 0 1:1 2:0.75600898 3:-0.1380278 4:-0.160925 5:0.5625 6:0.33303571 7:0.32460317 
0.18901283895409013 0 1 0.2280166126286734 1:1 2:-0.60174668 3:0.68651956 4:-0.60680294 5:0.5625 6:0.77656251 7:0.49821427 
0 1 0 0 1:1 2:0.59839517 3:-0.35946634 4:-0.34815142 5:0.5625 6:0.37767857 7:0.44603175 
0.36555400614414618 0 0 0 1:1 2:-0.53252888 3:0.17938067 4:-0.18696822 5:0.5625 6:0.010825893 7:0.021626985 
0 1 0 0 1:1 2:0.096747316 3:0.012704212 4:-0.013959475 5:0.5625 6:0.07611607 7:0.79523808 
1 1 0 0 1:1 2:0.82255399 3:-0.53645688 4:-0.59951383 5:0.5625 6:0.050334822 7:0.0023809525 
0.81325892896480023 0 1 0.38933216079249039 1:1 2:-0.63974661 3:0.75676131 4:-0.64480948 5:0.5625 6:0.005357143 7:0.016071429 
0 0.71528616345667728 0 0 1:1 2:0.16862437 3:0.039626852 4:0.011290826 5:0.5625 6:0.36428571 7:0.66984129 
1 1 0 0 1:1 2:0.77194619 3:-0.56718725 4:-0.56061476 5:0.5625 6:0.20022321 7:0.20952381 
1 1 0 0 1:1 2:0.50026101 3:0.18707323 4:0.18343389 5:0.5625 6:0.0018973214 7:0.043650795 
0 0 0.46300556608728793 0 1:1 2:0.51627141 3:0.08878655 4:-0.13386782 5:0.5625 6:0.60892856 7:0.05952381 
0 0 0.2210781034413368 0 1:1 2:-0.049404573 3:0.5419004 4:-0.064139888 5:0.5625 6:0.37890625 7:0.63154763 
0 0.022679264836783782 0 0 1:1 2:0.47601071 3:-0.28647181 4:-0.26670262 5:0.5625 6:0.1936384 7:0.44702381 
0 1 0 0 1:1 2:0.54965717 3:-0.087721147 4:-0.13082018 5:0.5625 6:0.33370537 7:0.23928571 
1 1 0 0 1:1 2:0.60432059 3:-0.096544974 4:-0.10813142 5:0.5625 6:0.11953125 7:0.18849206 
1 1 0 0 1:1 2:0.68323463 3:-0.52415401 4:-0.49660978 5:1.7777778 6:0.041865081 7:0.098549105 
0 0 0.30754626730337908 0 1:1 2:-0.12128782 3:0.61681652 4:-0.14004649 5:0.5625 6:0.3705357 7:0.10238095 
0 1 0 0 1:1 2:0.57141459 3:-0.15315366 4:-0.20935489 5:0.5625 6:0.2608259 7:0.23769841 
0 0 0.20683641329308797 0 1:1 2:-0.17498492 3:0.12767838 4:-0.67702931 5:0.5625 6:0.29229912 7:0.0015873016 
1 1 0 0 1:1 2:0.58023089 3:-0.072809443 4:-0.046134338 5:0.5625 6:0.23459822 7:0.21686508 
0 0 1 0 1:1 2:-0.3103224 3:0.17572819 4:-0.12221863 5:1.7777778 6:0.38531747 7:0.32589287 
1 1 0 0 1:1 2:0.85591245 3:-0.14754052 4:-0.15656394 5:0.5625 6:0.23404019 7:0.17083333 
0 0 1 0 1:1 2:-0.21315999 3:0.38540065 4:-0.22780032 5:1.7777778 6:0.017063493 7:0 
0 0 0 0.041390725944254081 1:1 2:-0.47756365 3:-0.081770375 4:-0.18571912 5:1.7777778 6:0.0029761905 7:0.20357142 
0 0 1 0 1:1 2:0.10917319 3:0.17400679 4:0.054698173 5:0.5625 6:0.99084824 7:0.10972222 
1 1 0.065169274478112535 0 1:1 2:0.85552132 3:-0.33017316 4:-0.34246784 5:0.5625 6:0.0010044643 7:0 
1 1 0 0 1:1 2:0.78217757 3:-0.010521731 4:-0.069971696 5:0.5625 6:0.036160715 7:0.045833334 
0 0 0.19748785327579169 0 1:1 2:-0.21014802 3:0.32715368 4:-0.25216022 5:1.7777778 6:0.12837301 7:0.25758928 
0.78491750555910733 1 0.57375178321214115 0.19666565603649977 1:1 2:0.40727878 3:0.36038277 4:0.15273175 5:0.5625 6:0.31975445 7:0.13095239 
0 0 0.18135066048067647 0 1:1 2:0.76318473 3:-0.7439906 4:-0.76624006 5:0.5625 6:0.17366071 7:0.023015874 
0.24691722172080646 1 1 1 1:1 2:0.4527061 3:0.40253013 4:0.32432312 5:1.7777778 6:0.17222223 7:0.19207589 
0 0 1 0.29575757652031764 1:1 2:0.42064855 3:0.20214777 4:0.25875807 5:0.5625 6:0.33872768 7:0.010317461 
0.079263157799277256 1 0 0 1:1 2:0.58337933 3:-0.30036029 4:-0.37014583 5:0.5625 6:0.33158481 7:0.5031746 
0 0 0.25786471108873549 0 1:1 2:0.077647015 3:0.67112654 4:0.049768005 5:0.5625 6:0 7:0 
0.22924258447099732 0 0 0 1:1 2:0.77503592 3:-0.55341911 4:-0.56118983 5:0.5625 6:0.140625 7:0.10357143 
0 0.68645508387440723 0 0 1:1 2:0.63869864 3:-0.38400754 4:-0.38685843 5:0.5625 6:0.26138392 7:0.33015874 
0 1 0 0 1:1 2:0.35532215 3:-0.10255773 4:-0.25930974 5:0.5625 6:0.3452009 7:0.6402778 
0 1 0 0 1:1 2:0.70931876 3:-0.40728506 4:-0.36807352 5:0.5625 6:0.11361607 7:0.13492064 
1 0.96505413140567375 1 1 1:1 2:-0.056436196 3:0.083992869 4:-0.072522007 5:0.5625 6:1.5680803 7:1.2571429 
1 1 0 0 1:1 2:0.85663158 3:-0.32846341 4:-0.37338385 5:0.5625 6:0.017633928 7:0.014880952 
1 1 0 0 1:1 2:0.66405642 3:-0.47533765 4:-0.5441556 5:0.5625 6:0.53850448 7:0.62142855 
0 1 0 0 1:1 2:0.59351152 3:-0.15700373 4:-0.15702924 5:0.5625 6:0.055915177 7:0.07361111 
0 0 0.3108339443970915 0 1:1 2:-0.4666245 3:0.80268818 4:-0.46911648 5:0.5625 6:0.069754466 7:0.027380953 
0 1 0 0 1:1 2:0.52500206 3:-0.0066821245 4:-0.11768413 5:0.5625 6:0.28783482 7:0.17162699 
1 1 0 0 1:1 2:0.34381306 3:-0.095671691 4:-0.053779721 5:0.5625 6:0.28281251 7:0.80952382 
1 1 0 0 1:1 2:0.76491183 3:-0.32851025 4:-0.38569951 5:0.5625 6:0.24910714 7:0.23948413 
0.37178219640132359 0 0 0 1:1 2:-0.34413522 3:-0.35484257 4:0.26493475 5:0.5625 6:0.30078125 7:0.2718254 
1 1 0.9595721024354954 0 1:1 2:0.52558273 3:0.29643551 4:0.14196685 5:1.7777778 6:0.14801587 7:0.24609375 
1 1 0 0 1:1 2:0.82293916 3:-0.40278918 4:-0.43675083 5:1.7777778 6:0.10476191 7:0.00066964288 
1 1 0.084522437252234295 0 1:1 2:0.58233678 3:-0.47301787 4:-0.40251786 5:0.5625 6:0.027901785 7:0.71130955 
1 1 0 0 1:1 2:0.48487565 3:-0.28063825 4:-0.28932396 5:0.5625 6:0.58616072 7:0.76428574 
0 0 1 0 1:1 2:0.092314072 3:0.65360105 4:0.072914168 5:0.5625 6:0.11551339 7:0.023015874 
0 1 0 0 1:1 2:0.11805814 3:0.27435732 4:0.0078562927 5:0.5625 6:0.32109374 7:0.77162701 
1 1 0 0 1:1 2:0.66658622 3:-0.61136395 4:-0.58451807 5:0.5625 6:0.040401787 7:0.43253967 
0.034127780947149473 1 0.46952253830128404 0 1:1 2:0.74415678 3:-0.59612918 4:-0.57229257 5:1.7777778 6:0.10773809 7:0.010044643 
0 0 1 0 1:1 2:-0.24530254 3:0.40636629 4:-0.41374674 5:1.7777778 6:0.24146825 7:0.10334822 
0 1 0 0 1:1 2:0.60548949 3:-0.13959837 4:-0.11174037 5:0.5625 6:0.0078125 7:0.026388889 
1 1 0 0 1:1 2:0.41327006 3:0.17108543 4:0.062083885 5:0.5625 6:0.053906251 7:0.25952381 
1 1 1 1 1:1 2:0.3528749 3:0.49303031 4:0.35286951 5:0.5625 6:0.09776786 7:0.3718254 
1 1 0.52810327179112138 0.5958461078758851 1:1 2:0.87660819 3:-0.75667197 4:-0.79521602 5:0.5625 6:0.43660715 7:0.05952381 
0 0.87684636503670244 0.38023565286204242 0.17077559011213878 1:1 2:-0.68729454 3:0.7478205 4:-0.70774418 5:0.5625 6:0.055245537 7:0.23412699 
0 1 0 0 1:1 2:0.45834097 3:-0.15491632 4:-0.19179392 5:0.5625 6:0.046093751 7:0.32480159 
0 1 0 0 1:1 2:0.38004315 3:0.22599298 4:-0.019530492 5:0.5625 6:0.04486607 7:0.15595238 
0 1 0 0 1:1 2:0.33023596 3:0.00020095371 4:0.051909771 5:0.5625 6:0.24866071 7:0.3702381 
0 0.032353781676534729 0.1413794382655395 1 1:1 2:0.47483122 3:-0.019723373 4:0.21561159 5:0.5625 6:0.65870535 7:0.12559524 
0.16945318964550476 1 0 0 1:1 2:0.23704526 3:0.3098819 4:0.28974956 5:0.5625 6:0.12109375 7:0.4375 
1 1 0 0 1:1 2:0.66359365 3:-0.31142905 4:-0.33940423 5:0.5625 6:0.30279016 7:0.38591269 
0 0.64454214021641953 0 0 1:1 2:0.64497942 3:-0.36029106 4:-0.32833257 5:0.5625 6:0.061160713 7:0.18313491 
1 1 0 0 1:1 2:0.60132176 3:-0.41749012 4:-0.44681948 5:0.5625 6:0.203125 7:0.5121032 
1 1 0 0 1:1 2:0.34888312 3:0.21325041 4:0.1132007 5:0.5625 6:0.053013392 7:0.34186509 
0 1 0 0 1:1 2:0.27352145 3:-0.041422814 4:-0.10625968 5:0.5625 6:0.11819196 7:0.62261903 
0 0 0.37148707569988731 0 1:1 2:-0.22511297 3:-0.52224398 4:0.11670581 5:0.5625 6:0.22879465 7:0.097420633 
1 1 0 0 1:1 2:0.55215758 3:-0.089129627 4:-0.11815884 5:0.5625 6:0.060937501 7:0.19285715 
0 1 0 0 1:1 2:0.48673531 3:-0.071211599 4:-0.08559294 5:0.5625 6:0.34095982 7:0.37757936 
1 1 0 0 1:1 2:0.20433775 3:-0.070666976 4:-0.084408268 5:0.5625 6:0.22555804 7:1.0319444 
0 0.38050351581614172 0 0 1:1 2:0.4092865 3:0.30636063 4:0.26421848 5:0.5625 6:0.14575893 7:0.06765873 
1 0.25609610545873768 0.85806598014322188 0.79617624767477913 1:1 2:0.27720636 3:-0.094454318 4:-0.22993982 5:0.5625 6:1.5503348 7:0.13829365 
1 1 0 0 1:1 2:0.65317863 3:-0.13579711 4:-0.091469809 5:0.5625 6:0.28191963 7:0.33571428 
0 1 0 0 1:1 2:0.65531433 3:-0.39071304 4:-0.34462163 5:1.7777778 6:0.042857144 7:0.018750001 
0 0.67096741982130437 0 0 1:1 2:0.59424478 3:-0.33290413 4:-0.44620919 5:1.7777778 6:0.05218254 7:0.14553571 
1 1 0 0 1:1 2:0.75501817 3:-0.51263976 4:-0.54776406 5:0.5625 6:0.020758929 7:0.095238097 
1 1 0 0 1:1 2:0.78339684 3:-0.26938793 4:-0.28069478 5:0.5625 6:0.098325893 7:0.20119047 
1 1 0 0 1:1 2:0.82026231 3:-0.39808291 4:-0.4303548 5:0.5625 6:0.0036830357 7:0.011904762 
0 0 0.2996157204125463 0 1:1 2:0.53912205 3:-0.17488453 4:-0.13296026 5:1.7777778 6:0.590873 7:0.12265625 
1 1 0 0 1:1 2:0.7828396 3:-0.53525215 4:-0.54177612 5:0.5625 6:0.14308035 7:0.14781746 
0 0.81489106518499943 0 0 1:1 2:0.51433533 3:0.15008934 4:0.12558343 5:1.7777778 6:0.02718254 7:0.0033482143 
0 1 0 0 1:1 2:0.58640701 3:-0.27382773 4:-0.269775 5:0.5625 6:0.34765625 7:0.36984128 
0.25318554224683992 0 0.32420303278080914 0.25803298395043739 1:1 2:-0.24362502 3:-0.37731048 4:0.41934627 5:1.7777778 6:0 7:0.013839286 
1 1 0 0 1:1 2:0.790043 3:-0.53127432 4:-0.49394149 5:0.5625 6:0.14821428 7:0.080952384 
0 0.2769236410395835 0 0 1:1 2:0.4107748 3:0.043754164 4:0.095440723 5:0.5625 6:0.028794643 7:0.13531746 
0.34184829435776531 0 0 0 1:1 2:0.12082405 3:0.57561779 4:0.1220699 5:0.5625 6:0.055022322 7:0.39246032 
1 1 0 0 1:1 2:0.49381238 3:0.31267804 4:0.19419487 5:0.5625 6:0.064843751 7:0.078571431 
0 1 0 0 1:1 2:0.25927055 3:0.07284978 4:-0.08176475 5:0.5625 6:0.28593749 7:0.55079365 
0 1 0 0 1:1 2:0.11180153 3:0.26765561 4:0.0051461975 5:0.5625 6:0.10167411 7:0.56865078 
1 1 0 0 1:1 2:0.77438962 3:-0.28544378 4:-0.25158581 5:0.5625 6:0.24140625 7:0.1156746 
0.99811279229053174 1 0 0 1:1 2:0.60992694 3:-0.2141657 4:-0.078281157 5:0.5625 6:0.19017857 7:0.2109127 
-0.29222090535132322 0 0 0 1:1 2:0.66272134 3:-0.36359221 4:-0.37900674 5:0.28125 6:0.55267859 7:0.92579365 
-0 1 0 0 1:1 2:0.95312357 3:0.10099676 4:0.10088624 5:0.28125 6:0.6551339 7:0.23968254 
-0 1 0 0 1:1 2:0.97299969 3:-0.44883147 4:-0.45000422 5:0.28125 6:0.26763391 7:1.0781746 
-0 0.63692264731607018 0 0 1:1 2:0.98181987 3:-0.24107394 4:-0.24380022 5:0.28125 6:0.9080357 7:0.79841268 
-0 1 0.35402479422509142 0.99809739011033949 1:1 2:0.75227904 3:0.29256397 4:0.27153623 5:0.28125 6:0.82008928 7:0 
-1 0 0 0 1:1 2:0.67327088 3:-0.19846673 4:-0.20285566 5:0.28125 6:0.33169642 7:0.042857144 
-0 1 0 0 1:1 2:0.98841625 3:0.097297117 4:0.097540058 5:0.28125 6:0.065066963 7:0.60912699 
-0 1 0 0 1:1 2:0.94016802 3:-0.31955618 4:-0.31941897 5:0.8888889 6:0.19543651 7:0.6863839 
-0 1 0 0 1:1 2:0.97140944 3:0.11533183 4:0.11249367 5:0.28125 6:0.017075893 7:0.6015873 
-0 1 0 0 1:1 2:0.95809501 3:-0.42639109 4:-0.42880315 5:0.8888889 6:0.074206352 7:0.5948661 
-0 1 0 0 1:1 2:0.92137265 3:-0.21077298 4:-0.20958771 5:0.8888889 6:0.40694445 7:0.68303573 
-0 1 0 0 1:1 2:0.92688113 3:-0.10256368 4:-0.11998018 5:0.8888889 6:0.47301587 7:0.80111605 
-0 1 0 0 1:1 2:0.9388234 3:0.026269425 4:0.0079916902 5:0.8888889 6:0.31388888 7:0.74508929 
-1 0 0 0 1:1 2:0.8474133 3:-0.3805733 4:-0.3816736 5:0.28125 6:0.11238839 7:0.021031747 
-0.031837790804586388 1 0.00018300193512365767 0.45285099304172705 1:1 2:0.97455466 3:-0.64496028 4:-0.64713413 5:0.8888889 6:0.14642857 7:0.49129465 
-0 1 0 1 1:1 2:0.98967671 3:0.76749849 4:0.76410127 5:0.28125 6:0.037834823 7:0.78333336 
-0 0.26898401145643824 0 0 1:1 2:0.90686369 3:-0.04575647 4:-0.044705104 5:0.8888889 6:0.092658728 7:0.77879465 
-0 1 0 0 1:1 2:0.98621321 3:-0.11216848 4:-0.11255237 5:0.28125 6:0.088504463 7:0.019444445 
-1 1 0.37718601094289039 1 1:1 2:0.8331694 3:0.055078123 4:0.046542276 5:0.8888889 6:0.78353173 7:0.74709821 
-0 0.50496661665335796 0 0 1:1 2:0.97542334 3:-0.0039273803 4:-0.0035269794 5:0.28125 6:0.57745534 7:0.31785715 
-0 1 0 0 1:1 2:0.95640606 3:-0.19174278 4:-0.1935682 5:0.28125 6:0.019977679 7:0.73809522 
-0 1 0 0 1:1 2:0.96171123 3:0.28752875 4:0.28672343 5:0.28125 6:0.72276783 7:0.44325396 
-1 0 0 0 1:1 2:0.54353225 3:-0.22489437 4:-0.2493182 5:0.28125 6:0.5873884 7:0.6654762 
-0 1 0 0 1:1 2:0.97136378 3:-0.23466055 4:-0.23619696 5:0.28125 6:1.2946428 7:0.55873019 
-1 1 0 0 1:1 2:0.97121543 3:-0.49703911 4:-0.49949121 5:0.8888889 6:0.11369047 7:0.22544643 
-0 1 0 1 1:1 2:0.95423079 3:0.7063753 4:0.68980455 5:0.28125 6:0.16127232 7:0.032142859 
-0 1 0 0 1:1 2:0.95770401 3:-0.35042101 4:-0.3506991 5:0.8888889 6:0.22678572 7:0.52723217 
-0.52246602179749735 1 0 0 1:1 2:0.96880734 3:-0.44407886 4:-0.44769603 5:0.28125 6:0.89453125 7:0.25674602 
-0 1 0 0.55754597617271406 1:1 2:0.97867399 3:0.19541556 4:0.19602433 5:0.8888889 6:0.43928573 7:0.88147324 
-0 1 0.70031392016553717 0 1:1 2:0.9326598 3:-0.25081247 4:-0.24887645 5:0.8888889 6:0.19305556 7:1.671875 
-1 0 0 0 1:1 2:0.89230555 3:-0.2854313 4:-0.29019472 5:0.28125 6:0.18950893 7:0 
-0 1 0 0 1:1 2:0.99000454 3:-0.11337268 4:-0.11265374 5:0.28125 6:0.022767857 7:0.14325397 
-0 0 0 0.39550642612855968 1:1 2:0.80434775 3:0.5288316 4:0.52235937 5:0.28125 6:0.33660713 7:0.51587301 
-0 0.76950176964871286 0 0 1:1 2:0.65601355 3:-0.064106479 4:-0.083575279 5:0.28125 6:1.1766741 7:1.2876984 
-0 1 0 0 1:1 2:0.95999348 3:0.078699365 4:0.078840852 5:0.28125 6:0.020200893 7:0.840873 
-0 1 0 0 1:1 2:0.99419743 3:-0.37884408 4:-0.37879184 5:0.8888889 6:0.13234127 7:0.31495535 
-0 1 0 0 1:1 2:0.95349848 3:-0.016638309 4:-0.01706663 5:0.28125 6:0.7112723 7:0.56706351 
-0 1 0.035850048547053516 0 1:1 2:0.9414342 3:-0.39695159 4:-0.40117326 5:0.28125 6:0.95602679 7:1.3353175 
-0 0.1821655182378914 0 0 1:1 2:0.8640784 3:0.0079564992 4:0.03275713 5:0.28125 6:0.15959822 7:1.5646825 
-0 1 0 0 1:1 2:0.98977697 3:-0.035458043 4:-0.035633124 5:0.28125 6:0.043973215 7:0.44246033 
-0 1 0 0 1:1 2:0.97114503 3:0.074563108 4:0.075090803 5:0.8888889 6:0.19781746 7:0.57299107 
-0 0.4340372044233462 0 0 1:1 2:0.94769812 3:-0.021947911 4:-0.031051746 5:0.28125 6:1.0166295 7:1.2325397 
-0 1 0 0 1:1 2:0.951092 3:0.028083172 4:0.020462176 5:0.8888889 6:0.079365082 7:0.41026786 
-1 1 0 0 1:1 2:0.91997534 3:-0.37253365 4:-0.38001505 5:0.8888889 6:0.46170634 7:0.55491072 
-0 1 0 0 1:1 2:0.9551174 3:-0.53598815 4:-0.53535199 5:0.28125 6:0.46060267 7:1.0186508 
-0 1 0.36892875440808365 0 1:1 2:0.98566526 3:-0.78601563 4:-0.78570592 5:0.28125 6:0.51875001 7:0.50476193 
-0 0.58068029774134866 0 0 1:1 2:0.99354351 3:0.019671794 4:0.019787738 5:0.28125 6:0.18191965 7:0.66150796 
-0.37648372716633666 1 0 0 1:1 2:0.61255211 3:-0.23370411 4:-0.22709522 5:0.28125 6:0.077120535 7:1.2642857 
-1 0 0 0 1:1 2:0.58657324 3:-0.17289925 4:-0.16924676 5:0.28125 6:0.6342634 7:0.3952381 
-0 1 0 0 1:1 2:0.98308009 3:-0.27981856 4:-0.28335395 5:0.28125 6:0.018415179 7:0.56706351 
-0 1 0 0 1:1 2:0.93928999 3:-0.029519733 4:-0.043894254 5:0.8888889 6:0.25019842 7:0.34888393 
-1 1 0 0 1:1 2:0.87879252 3:-0.1312204 4:-0.13082384 5:0.8888889 6:0.44563493 7:0.27388394 
-0 0.15096543628525305 0 0 1:1 2:0.94351375 3:-0.2277718 4:-0.2309484 5:0.28125 6:0.25591516 7:0 
-0 1 0 0 1:1 2:0.97232068 3:0.14813797 4:0.14580324 5:0.8888889 6:0.19742064 7:0.81294644 
-0 1 0 0 1:1 2:0.98139441 3:0.10524982 4:0.10368076 5:0.8888889 6:0.046626985 7:0.45982143 
-0 1 0 0 1:1 2:0.98269111 3:0.011705054 4:0.0062936535 5:0.8888889 6:0.044444446 7:0.064062499 
-1 1 0 0 1:1 2:0.76629514 3:0.0042013982 4:-0.0014654361 5:0.8888889 6:0.34424603 7:0.78169644 
-0 0.16861229799405619 0 0 1:1 2:0.96621299 3:-0.041655313 4:-0.043059535 5:0.8888889 6:0.2013889 7:0.36651787 
-0 0.60388255325563234 0 0 1:1 2:0.98072964 3:0.076513126 4:0.071595743 5:0.28125 6:0.10948661 7:0.62301588 
-1 1 0 0 1:1 2:0.98433161 3:-0.45325935 4:-0.45425022 5:0.8888889 6:0.053174604 7:0.20491071 
-1 1 0.36846636029740404 0 1:1 2:0.058298543 3:0.24848276 4:-0.069172494 5:0.28125 6:0.057700891 7:0.63730156 
-0 1 0 0.24967298901702759 1:1 2:0.97806734 3:0.73215044 4:0.7304644 5:0.28125 6:0.065848216 7:1.2742064 
-0 1 0 0 1:1 2:0.95582557 3:0.077001438 4:0.077088535 5:0.28125 6:0.71517855 7:0.6988095 
-1 1 0 0 1:1 2:0.97255063 3:-0.53654742 4:-0.53774667 5:0.8888889 6:0.23869048 7:0.37790179 
-0 1 0 0 1:1 2:0.93269098 3:0.031049524 4:0.033670288 5:0.28125 6:1.1792411 7:0.72460318 
-0 1 0 0 1:1 2:0.84985238 3:0.13907331 4:0.12008695 5:0.28125 6:0.74029016 7:1.5714285 
-0 1 0 0 1:1 2:0.96294498 3:-0.67254621 4:-0.67520154 5:0.28125 6:0.20753348 7:0.49246031 
-0 1 0 0 1:1 2:0.96448559 3:-0.44047806 4:-0.44675633 5:0.8888889 6:0.15555556 7:0.41629463 
-0 0 0 1 1:1 2:0.97602266 3:0.66495407 4:0.66336793 5:0.28125 6:0.18125001 7:0.21944444 
-0 1 0 0 1:1 2:0.89879787 3:0.13815382 4:0.14181678 5:0.28125 6:0.92522323 7:1.5039682 
-1 1 0 0 1:1 2:0.82964051 3:-0.27236685 4:-0.28196117 5:0.8888889 6:0 7:0.34732142 
-0 1 0 0 1:1 2:0.94625735 3:-0.15794019 4:-0.15880375 5:0.8888889 6:0.022916667 7:0.80725449 
-0 1 0.5253501228180083 1 1:1 2:0.72266024 3:0.70334512 4:0.67779326 5:0.28125 6:0.86517859 7:1.0392857 
-0 1 0 0 1:1 2:0.95700389 3:-0.36009803 4:-0.35657641 5:0.8888889 6:0.088194445 7:0.5543527 
-0.38545955933745529 1 0.65467739170205086 0 1:1 2:0.80825394 3:0.62068796 4:0.58182359 5:0.28125 6:0.031919643 7:1.8880953 
-0 1 0 0 1:1 2:0.98149019 3:-0.026116738 4:-0.02730651 5:0.28125 6:0.044475447 7:0.56944442 
-0 1 0 0 1:1 2:0.93250811 3:-0.3584609 4:-0.37896731 5:0.8888889 6:0.056746032 7:0.53995538 
-1 0.81630442647484502 0 0 1:1 2:0.74124402 3:-0.12437584 4:-0.11196879 5:0.28125 6:0.8707031 7:0.21468253 
-0 1 0 0 1:1 2:0.94884622 3:-0.51787126 4:-0.54529572 5:0.28125 6:0.069587052 7:0.20059524 
-0 1 0 1 1:1 2:0.9909333 3:0.76212507 4:0.76311564 5:0.28125 6:0.0070312498 7:1.3984127 
-1 0 0 0 1:1 2:0.76496279 3:-0.32922456 4:-0.32772869 5:0.28125 6:0.24001116 7:0.2061508 
-0 1 0 0 1:1 2:0.9077242 3:-0.38412124 4:-0.38681632 5:0.8888889 6:0.14434524 7:0.5248884 
-0 1 0 0 1:1 2:0.94655454 3:-0.39531034 4:-0.39511728 5:0.8888889 6:0.13313492 7:0.39319196 
-0 1 0 0 1:1 2:0.97057712 3:-0.60897607 4:-0.60952747 5:0.28125 6:0.098437503 7:0.61309522 
-0 0.080156676862251794 0 0 1:1 2:0.96388429 3:0.11780607 4:0.11308718 5:0.28125 6:0.062779017 7:1.5757936 
-0 1 0 0 1:1 2:0.91909856 3:0.060068063 4:0.055366024 5:0.8888889 6:0.24692461 7:0.77511162 
-0 1 0 0 1:1 2:0.98853582 3:-0.61201322 4:-0.61453992 5:0.28125 6:0.20323661 7:0.21369047 
-0 1 0 0 1:1 2:0.95809722 3:-0.05127041 4:-0.05151733 5:0.8888889 6:0.42003968 7:0.55066967 
-0 1 0 0 1:1 2:0.99097556 3:0.092041045 4:0.091850877 5:0.28125 6:0.54497766 7:0.48928571 
-0 1 0 0 1:1 2:0.98575723 3:-0.11379969 4:-0.11456466 5:0.28125 6:0.0095982142 7:0.45575398 
-0 0 0 1 1:1 2:0.86407316 3:0.56211782 4:0.55299234 5:0.28125 6:0.40931919 7:0.59444445 
-0 0.31855120105232243 0 0 1:1 2:0.96335948 3:0.67446452 4:0.67161971 5:0.28125 6:0.034486607 7:1.15 
-0 1 0 0 1:1 2:0.97759998 3:-0.059380032 4:-0.060909279 5:0.28125 6:0.016852679 7:0.67579365 
-0 1 0 0 1:1 2:0.98202097 3:0.099108703 4:0.098822773 5:0.28125 6:0.055189732 7:0.78373015 
-0 1 0 0 1:1 2:0.95130289 3:-0.077047154 4:-0.076125734 5:0.8888889 6:0.14226191 7:0.96339285 
-1 1 1 0.21784683573379979 1:1 2:-0.28243813 3:0.66282988 4:-0.56394821 5:0.8888889 6:0.039781746 7:1.0004464 
-0 1 0 0 1:1 2:0.96402156 3:-0.52187079 4:-0.52668363 5:0.8888889 6:0.042460319 7:0.5691964 
-0 1 0 0 1:1 2:0.98431617 3:-0.32881078 4:-0.32927078 5:0.8888889 6:0.031051587 7:0.2375 
-0 1 0 0 1:1 2:0.96827656 3:-0.3809939 4:-0.38042864 5:0.8888889 6:0.099801585 7:0.48046875 
-0.79908619700598293 1 0 0 1:1 2:0.32185301 3:0.28276157 4:-0.36236358 5:0.28125 6:0.025446428 7:0.31349206 
-1 1 0 0 1:1 2:0.97638243 3:-0.59020919 4:-0.59590358 5:0.8888889 6:0.062599204 7:0.28638393 
-0 1 0 0 1:1 2:0.97055191 3:-0.39352229 4:-0.39310247 5:0.28125 6:0.046149552 7:0.85099208 
-0.19252430988420205 1 0 0 1:1 2:0.88968921 3:-0.40535524 4:-0.40864733 5:0.8888889 6:0.28670636 7:0.72700894 
-0 1 0 0 1:1 2:0.95455188 3:-0.49427754 4:-0.49699134 5:0.28125 6:0.063504465 7:0.18472221 
-0 1 0 0 1:1 2:0.8942517 3:0.016931845 4:0.018454827 5:0.8888889 6:0.11507937 7:0.85390627 
-0 1 0 0 1:1 2:0.98865145 3:-0.51736426 4:-0.51787508 5:0.28125 6:0.05078125 7:0.2468254 
-0 0 0 1 1:1 2:0.89452833 3:0.62038386 4:0.59720844 5:0.28125 6:0.37148437 7:0.46805555 
-1 1 0 0 1:1 2:0.21830814 3:-0.047942966 4:-0.26702997 5:0.28125 6:0.36049107 7:0.57400793 
-0 1 0 0 1:1 2:0.87119579 3:-0.40438101 4:-0.41544348 5:0.28125 6:0.079352677 7:1.0067461 
-0 1 0 0 1:1 2:0.96273565 3:-0.7561937 4:-0.75564122 5:0.28125 6:0.21981026 7:0.37043652 
-0 0.58577908429491932 0 0 1:1 2:0.94968307 3:-0.1272338 4:-0.12820868 5:0.28125 6:0.0031808035 7:0.54821426 
-1 0 0 0 1:1 2:0.80048019 3:-0.51661485 4:-0.52883369 5:0.28125 6:0.40000001 7:0.37678573 
-0.1727415319872527 1 0.85079847939332953 1 1:1 2:0.95841891 3:0.79830527 4:0.80059552 5:0.28125 6:0.015122768 7:0.036904763 
-0 1 0.23759136169795758 1 1:1 2:0.97348911 3:0.72791624 4:0.72471875 5:0.28125 6:0.10385045 7:1.7609127 
-1 1 0.50287041304079205 0 1:1 2:0.92772239 3:0.10694619 4:0.10412857 5:0.8888889 6:0.0031746032 7:0.00011160714 
-0 1 0 0 1:1 2:0.98917836 3:-0.35451147 4:-0.35437334 5:0.8888889 6:0.17728175 7:0.7358259 
-0 1 0 0 1:1 2:0.59938675 3:0.07656683 4:0.02516854 5:0.28125 6:1.075279 7:1.5017858 
-0 1 0 0 1:1 2:0.95733917 3:-0.049050953 4:-0.051662903 5:0.28125 6:0.046707589 7:0.74365079 
-0 1 0 0 1:1 2:0.90511143 3:-0.047832932 4:-0.045213997 5:0.8888889 6:0.45704365 7:0.82790178 
-1 0.084867977762321051 0 0 1:1 2:0.35248977 3:-0.05507832 4:-0.025002996 5:0.28125 6:0.78437501 7:0.80277777 
-0 1 0 0.090486304592128503 1:1 2:0.94485879 3:0.15183674 4:0.1502376 5:0.8888889 6:0.38293651 7:0.44308037 
-0 1 0 0 1:1 2:0.93808717 3:-0.33601126 4:-0.34109268 5:0.28125 6:0.019419642 7:0.084325396 
-0 1 0 0 1:1 2:0.95603871 3:-0.044007272 4:-0.045783073 5:0.8888889 6:0.25059524 7:0.82656252 
-0 1 0 1 1:1 2:0.92773682 3:0.40350091 4:0.40043253 5:0.8888889 6:0.021428572 7:0.4501116 
-0 1 0 0 1:1 2:0.96395367 3:-0.18507476 4:-0.18724792 5:0.8888889 6:0.0025793652 7:0.1782366 
-0 1 0 0 1:1 2:0.87827724 3:-0.44483924 4:-0.51131439 5:0.8888889 6:0.11994047 7:0.6736607 
-0 1 0 0 1:1 2:0.4056817 3:0.099337079 4:0.067333944 5:0.28125 6:0.035323661 7:0.74761903 
-0 1 0 0 1:1 2:0.9502266 3:-0.32061937 4:-0.32363483 5:0.8888889 6:0.17519841 7:0.59899551 
-0 1 0 0 1:1 2:0.90506297 3:-0.26703578 4:-0.26591557 5:0.8888889 6:0.16954365 7:0.74207592 
-0 1 0 0 1:1 2:0.95811367 3:-0.62833273 4:-0.62944394 5:0.28125 6:0.095424108 7:0.24146825 
-0 1 0 0 1:1 2:0.95798397 3:0.10306513 4:0.10303706 5:0.8888889 6:0.014880952 7:0.35814732 
-0 1 0 0 1:1 2:0.9807874 3:0.14299136 4:0.13877608 5:0.8888889 6:0.037103176 7:0.52075893 
-1 0.92718551662367366 1 0.64779900507111599 1:1 2:-0.66844755 3:0.75392586 4:-0.76375324 5:0.8888889 6:0.022817461 7:1.1368303 
-0 1 0 0 1:1 2:0.99591964 3:-0.33318594 4:-0.33382589 5:0.8888889 6:0.0029761905 7:0.30781251 
-0 1 0 0 1:1 2:0.87127584 3:-0.0047061425 4:-0.0065136594 5:0.8888889 6:0.2938492 7:1.0154018 
-0 1 0 0 1:1 2:0.98693562 3:-0.061740175 4:-0.063759573 5:0.28125 6:0.0037946429 7:0.58015871 
-0 1 0 0 1:1 2:0.97966838 3:-0.24144073 4:-0.24120489 5:0.28125 6:0.0059151785 7:0.48273811 
-0.94233201965616076 1 0 0 1:1 2:0.97623914 3:-0.7072714 4:-0.70758659 5:0.28125 6:0.66997766 7:0.44186509 
-0 1 0 0 1:1 2:0.97059274 3:-0.22009254 4:-0.22392322 5:0.8888889 6:0.093154758 7:0.20691964 
-0 1 0 0 1:1 2:0.96156383 3:-0.011353454 4:-0.01116717 5:0.8888889 6:0.13740079 7:0.84732145 
-0 0.34420314786911665 0 0 1:1 2:0.73008251 3:0.1466008 4:0.1345892 5:0.28125 6:1.0164621 7:0.29523811 
-0 0.037294989539364734 0 0 1:1 2:0.98492813 3:-0.65476131 4:-0.65555799 5:0.28125 6:0.43314731 7:0.32202381 
-0.037275828092693482 0 0 0 1:1 2:0.60865134 3:-0.24196999 4:-0.23103847 5:0.28125 6:0.027901785 7:0.38869047 
-0 1 0 0 1:1 2:0.97390008 3:-0.45966053 4:-0.45973256 5:0.28125 6:0.0070312498 7:0.25535715 
-0 1 0 0 1:1 2:0.9534595 3:-0.056735203 4:-0.059498694 5:0.28125 6:0.04001116 7:0.67460316 
-0 1 0 0 1:1 2:0.97256106 3:-0.0042877155 4:-0.0063454076 5:0.28125 6:0.071093753 7:0.0049603176 
-0 1 0 0 1:1 2:0.90322876 3:0.11626741 4:0.11379375 5:0.8888889 6:0.13680555 7:0.78783482 
-0 1 0 1 1:1 2:0.88709998 3:0.33121833 4:0.32282406 5:0.8888889 6:0.1407738 7:1.1783482 
-1 0 0 0 1:1 2:0.86285496 3:-0.32525444 4:-0.32655406 5:0.28125 6:0.25530133 7:0.051785715 
-0 1 0 0 1:1 2:0.95185345 3:-0.1638771 4:-0.16300626 5:0.28125 6:0.031863838 7:0.020238096 
-0 1 0 0 1:1 2:0.92834711 3:-0.48480269 4:-0.49591941 5:0.8888889 6:0.023313493 7:0.42555803 
-1 1 0 0 1:1 2:0.17945655 3:-0.30741954 4:-0.23704755 5:0.28125 6:0.06830357 7:0.65634918 
-0 1 0 0 1:1 2:0.99018818 3:-0.22894566 4:-0.22882831 5:0.28125 6:0.11104911 7:1.1936508 
-0 1 0 0 1:1 2:0.95671737 3:0.071843319 4:0.063462041 5:0.8888889 6:0.13680555 7:0.76953125 
-0 1 0 0 1:1 2:0.98919207 3:-0.31149828 4:-0.31144026 5:0.8888889 6:0.011607143 7:0.35412946 
-1 0 0 0 1:1 2:0.84700429 3:-0.21957089 4:-0.22178876 5:0.8888889 6:0.082539685 7:0.46015626 
-0 1 0 0 1:1 2:0.99419993 3:-0.74219531 4:-0.74224079 5:0.28125 6:0.19229911 7:0.40257937 
-0.89248689262032477 1 1 1 1:1 2:0.96583503 3:0.40813923 4:0.40304357 5:0.8888889 6:0.18224207 7:0.18571429 
-0 1 0 0 1:1 2:0.94158155 3:-0.15843391 4:-0.15620974 5:0.28125 6:0.035267856 7:0.036706351 
-1 0 0 0 1:1 2:0.69835836 3:0.31445053 4:0.28235951 5:0.28125 6:0.094029017 7:0 
-0 0.39745478488935104 0 0.09059974976350732 1:1 2:0.87168711 3:0.22859439 4:0.21637757 5:0.28125 6:0.94380581 7:0.85436505 
-0 1 0 0 1:1 2:0.99707353 3:0.67305648 4:0.67149812 5:0.28125 6:0 7:0 
-0 1 0 0 1:1 2:0.98227197 3:-0.22937684 4:-0.22985716 5:0.28125 6:0.046986606 7:0.67837304 
-1 1 0.39028592624234187 0 1:1 2:0.94193608 3:-0.50893599 4:-0.50875789 5:0.8888889 6:0.057142857 7:0.12712054 
-0 1 0 0 1:1 2:0.9820838 3:-0.10000348 4:-0.1002367 5:0.28125 6:0.026004463 7:0 
-0 1 0 0 1:1 2:0.96105587 3:0.10115714 4:0.092000723 5:0.8888889 6:0.11894841 7:0.15580358 
-0 1 0 0 1:1 2:0.97237748 3:-0.02550903 4:-0.027121309 5:0.28125 6:0.0047991071 7:0.6825397 
-0 1 0 0 1:1 2:0.95404923 3:-0.41312841 4:-0.41483831 5:0.8888889 6:0.17142858 7:0.48314732 
-1 0 0 0 1:1 2:0.31387579 3:-0.063367687 4:-0.097187795 5:0.28125 6:0.26065847 7:0.4172619 
-0.24773916508792765 0.25837843282523287 0.25613243703268962 1 1:1 2:0.72121602 3:0.085444398 4:0.097682185 5:0.28125 6:1.4660715 7:0.62063491 
-1 1 0 0 1:1 2:0.84629607 3:-0.10721497 4:-0.10687777 5:0.8888889 6:0.033928573 7:0.092410713 
-0 1 0 0 1:1 2:0.94153905 3:-0.65495169 4:-0.65438753 5:0.28125 6:0.29843751 7:0.76984125 
-0 1 0 0 1:1 2:0.98568821 3:-0.32681158 4:-0.32750821 5:0.28125 6:0.02639509 7:0.17559524 
-0 1 0 0 1:1 2:0.96270818 3:-0.62197185 4:-0.6278007 5:0.28125 6:0.19308035 7:0.70476192 
-1 0.80451326557294223 0 0 1:1 2:0.44114602 3:0.6781131 4:0.2441714 5:0.28125 6:0.02594866 7:0.31904763 
-0 0 0 1 1:1 2:0.82997727 3:0.35480529 4:0.35000756 5:0.28125 6:0.72539061 7:0.36884922 
-0 1 0 0 1:1 2:0.92778122 3:0.122277 4:0.12061094 5:0.8888889 6:0.17242064 7:0.6736607 
-0 1 0 0 1:1 2:0.97276944 3:-0.49112493 4:-0.49250579 5:0.28125 6:0.21462053 7:1.1039683 
-0 0.062043483245577229 0 0 1:1 2:0.98331785 3:0.16952728 4:0.17022976 5:0.28125 6:0.00044642857 7:1.0009921 
-0 0 0 1 1:1 2:0.85267287 3:0.61529189 4:0.61815834 5:0.28125 6:0.44235492 7:0.72996032 
-0 1 0 0 1:1 2:0.95572144 3:0.12637338 4:0.12771744 5:0.28125 6:0.023995535 7:0.77440476 
-0 1 0 0 1:1 2:0.93428737 3:-0.19267273 4:-0.19584513 5:0.28125 6:0.0546875 7:1.2386905 
-0 1 0 0 1:1 2:0.92232209 3:0.62837976 4:0.62654698 5:0.28125 6:0.059319198 7:1.8095238 
-0 1 0 0 1:1 2:0.97146547 3:-0.42906269 4:-0.43450382 5:0.28125 6:0.0075892857 7:0.2638889 
-0 1 0 0 1:1 2:0.95893162 3:-0.091258064 4:-0.088472605 5:0.28125 6:0.00011160714 7:0 
-1 1 0 0 1:1 2:0.96528685 3:-0.12043929 4:-0.11937474 5:0.8888889 6:0.12906747 7:0.050111607 
-0 0.93618962784456572 0 1 1:1 2:0.75649935 3:0.8034296 4:0.6076299 5:0.28125 6:0.064787947 7:0.41269842 
-0 1 0 0 1:1 2:0.94414407 3:-0.52706605 4:-0.52125335 5:0.28125 6:0.23543526 7:0.92202383 
-1 1 0 0 1:1 2:0.96941465 3:-0.42412823 4:-0.42682889 5:0.8888889 6:0.051091269 7:0.24375001 
-0 1 0 1 1:1 2:0.89965224 3:0.76991105 4:0.73227316 5:0.28125 6:0.063392855 7:1.6170635 
-0 0 0 0.65793949787341233 1:1 2:0.59096998 3:0.49178314 4:0.4428812 5:0.28125 6:0.20334822 7:0.26507938 
-1 0 0 0 1:1 2:0.85123169 3:-0.18177611 4:-0.18216373 5:0.8888889 6:0.11349206 7:0.47444198 
-0 0.82145522199073329 0 1 1:1 2:0.9076671 3:0.45330638 4:0.45241535 5:0.28125 6:0.71484375 7:1.6650794 
-0 1 0 0 1:1 2:0.96905804 3:0.25732628 4:0.25347972 5:0.8888889 6:0.010317461 7:0.58214283 
-0 1 0 0 1:1 2:0.96866679 3:-0.12278918 4:-0.1237123 5:0.28125 6:0.11054687 7:0.0055555557 
-0 1 0 0 1:1 2:0.98399782 3:0.16733727 4:0.16752118 5:0.28125 6:0.011662946 7:0.91349208 
-0 1 0 0 1:1 2:0.98399544 3:-0.44050962 4:-0.44542694 5:0.28125 6:0.032533482 7:0.17480159 
-0 1 0 0 1:1 2:0.96091425 3:-0.47732949 4:-0.47859862 5:0.8888889 6:0.054761905 7:0.7247768 
-0 1 0 0 1:1 2:0.8621977 3:-0.10030257 4:-0.10102176 5:0.28125 6:0.10212053 7:1.5305556 
-0 0.3208128686067484 0 0 1:1 2:0.81867623 3:0.71150351 4:0.65246856 5:0.28125 6:0.0012834822 7:1.0474206 
-0 1 0 0 1:1 2:0.95888484 3:0.48662809 4:0.4626992 5:0.28125 6:0 7:0 
-0 1 0 0 1:1 2:0.9776327 3:-0.37117434 4:-0.3705368 5:0.8888889 6:0.10069445 7:0.50323659 
-0 1 0 0 1:1 2:0.9518286 3:0.16225946 4:0.1603177 5:0.8888889 6:0.22212301 7:0.83247769 
-0 0.21649093164383998 0 0 1:1 2:0.99153662 3:0.43082485 4:0.43138307 5:0.28125 6:0.022712054 7:0 
-0 1 0 0 1:1 2:0.90960097 3:-0.46237645 4:-0.48159766 5:0.28125 6:0.0078125 7:0.68730158 
-0 1 0 0 1:1 2:0.96237373 3:0.035938673 4:0.03244178 5:0.28125 6:0.013950893 7:0.69900793 
-0 1 0 0 1:1 2:0.95679671 3:0.49463597 4:0.49374837 5:0.28125 6:0.48297992 7:0 
-0 1 0 0 1:1 2:0.99836361 3:-0.57246584 4:-0.57256424 5:0.28125 6:0.0051339287 7:0.23968254 
-0 1 0 1 1:1 2:0.96495199 3:0.29183128 4:0.28036949 5:0.8888889 6:0.19156747 7:0.75770092 
-0 1 0 0 1:1 2:0.96428144 3:-0.4013187 4:-0.40528727 5:0.28125 6:0.060156249 7:0.042063493 
-0 1 0 0 1:1 2:0.88965112 3:0.1502194 4:0.12881087 5:0.8888889 6:0.081845239 7:0.52924109 
-0 1 0 0 1:1 2:0.93056762 3:-0.3799338 4:-0.38249648 5:0.8888889 6:0.13293651 7:0.4609375 
-0 1 0 0 1:1 2:0.98147881 3:-0.40924162 4:-0.40913597 5:0.8888889 6:0.098015875 7:0.39654016 
-0 1 0 0 1:1 2:0.95013469 3:0.061994981 4:0.052774701 5:0.8888889 6:0.0057539684 7:0.54397321 
-0 1 0 0 1:1 2:0.92859763 3:0.076023437 4:0.073782377 5:0.8888889 6:0.16547619 7:0.72667408 
-0 1 0 0 1:1 2:0.92308527 3:0.22049154 4:0.21248877 5:0.8888889 6:0.1235119 7:0.46294641 
-1 1 0 0 1:1 2:0.80330563 3:-0.29488122 4:-0.28148079 5:0.8888889 6:0.0091269845 7:0.55703127 
-0 1 0 0 1:1 2:0.98828119 3:0.048772983 4:0.047425095 5:0.28125 6:0.032756697 7:0.019246032 
-0 1 0 0 1:1 2:0.97728384 3:0.023375647 4:0.02330585 5:0.28125 6:0.036049109 7:1.5101191 
-0 1 0 0 1:1 2:0.99179852 3:-0.5311653 4:-0.53217751 5:0.8888889 6:0.18323413 7:0.82008928 
-0 1 0 0 1:1 2:0.99186099 3:-0.50782055 4:-0.50939816 5:0.8888889 6:0.036111113 7:0.71540177 
-0 1 0 0 1:1 2:0.90543276 3:0.68756664 4:0.60878503 5:0.28125 6:0.11930803 7:1.8462301 
-0 0.76059265081292271 0 0 1:1 2:0.98789787 3:-0.24891327 4:-0.24884214 5:0.28125 6:0.16629465 7:0.056547619 
-0 0.052997265411655427 0 0 1:1 2:0.98445332 3:-0.18497734 4:-0.18439505 5:0.28125 6:0.064899556 7:0.63571429 
-0 1 0 0 1:1 2:0.94863415 3:-0.18970925 4:-0.18917137 5:0.8888889 6:0.34563491 7:0.63504463 
-0 1 0 0 1:1 2:0.97572166 3:-0.46851495 4:-0.47426274 5:0.8888889 6:0.10863096 7:0.38805804 
-0 1 0 0 1:1 2:0.95568639 3:0.026091553 4:0.020339439 5:0.28125 6:0.0031808035 7:0.57440478 
-0 1 0 0 1:1 2:0.98877555 3:-0.60911554 4:-0.6108501 5:0.28125 6:0.043973215 7:0.50853175 
-0 1 0 0 1:1 2:0.99218613 3:-0.6056025 4:-0.60595316 5:0.8888889 6:0.10724206 7:0.41116071 
-0 0.67405442495127588 0 0 1:1 2:0.96591073 3:-0.13733369 4:-0.14596789 5:0.28125 6:0.033928573 7:0.9285714 
-0 1 0 0 1:1 2:0.96858567 3:0.083257012 4:0.082057588 5:0.8888889 6:0.015376984 7:0.92455357 
-0 1 0 0 1:1 2:0.98239708 3:-0.00062012929 4:-0.0010110589 5:0.28125 6:0.059933037 7:0.8093254 
-0 1 1 1 1:1 2:0.91086799 3:0.42633721 4:0.42475733 5:0.8888889 6:0.24315476 7:0.55022323 
-0 1 0 0 1:1 2:0.96493298 3:0.041186053 4:0.041010708 5:0.28125 6:0.051339287 7:0.79027778 
-1 1 0.94285604938566547 0 1:1 2:0.18370867 3:0.22867002 4:-0.34287414 5:0.28125 6:0.0095982142 7:0 
-0 1 0 0 1:1 2:0.97848469 3:-0.070365526 4:-0.072336018 5:0.8888889 6:0.042956349 7:0.30267859 
-1 0 0 0 1:1 2:0.68276346 3:-0.36869627 4:-0.37112629 5:0.28125 6:0.27689731 7:0.49067461 
-0 1 0 0 1:1 2:0.985102 3:-0.10418633 4:-0.10599384 5:0.28125 6:0.13242188 7:0.010714286 
-1 0 0 0 1:1 2:0.34211415 3:0.056494653 4:-0.0094370851 5:0.28125 6:0.24882813 7:0.34345239 
-0 1 0 0 1:1 2:0.96508068 3:-0.35065666 4:-0.35710329 5:0.8888889 6:0 7:0.25669643 
-1 1 0.336800578132677 0.26929925290777601 1:1 2:0.98997504 3:-0.7595529 4:-0.76265854 5:0.28125 6:0.4408482 7:0.1829365 
-0 1 0 1 1:1 2:0.94941407 3:0.7823121 4:0.7697103 5:0.28125 6:0.057812501 7:0.49603173 
-0 1 0 0 1:1 2:0.9188894 3:-0.016149249 4:-0.035713561 5:0.8888889 6:0.10873016 7:0.86372769 
-0 1 0 0 1:1 2:0.99226749 3:-0.27605 4:-0.276097 5:0.28125 6:0.041127231 7:1.3200396 
-0 1 0 1 1:1 2:0.9631896 3:0.66701955 4:0.66769862 5:0.28125 6:0.061830357 7:0.085912697 
-0 1 0 0 1:1 2:0.96704954 3:0.1292309 4:0.12851368 5:0.8888889 6:0.064186506 7:0.66986609 
-0 1 0 0 1:1 2:0.93967891 3:-0.51584995 4:-0.51434797 5:0.28125 6:0.003627232 7:0.35079366 
-0 1 0 0 1:1 2:0.96061087 3:0.060743522 4:0.052981205 5:0.28125 6:0.040178571 7:0.74603176 
-0 1 0 0 1:1 2:0.98487699 3:-0.47110772 4:-0.4727436 5:0.28125 6:0.033761162 7:0.64166665 
-0 1 0 0 1:1 2:0.94432837 3:0.038846787 4:0.03920088 5:0.8888889 6:0.12767857 7:0.69910717 
-1 1 0 0 1:1 2:0.91615337 3:-0.33391604 4:-0.33313724 5:0.8888889 6:0.0023809525 7:0.17410715 
-0 1 0 0 1:1 2:0.95128798 3:-0.15279073 4:-0.15316032 5:0.8888889 6:0.030654762 7:0.26651785 
-0 1 0 0 1:1 2:0.95082486 3:-0.34663424 4:-0.34376898 5:0.28125 6:0.59140623 7:1.3561507 
-0 0.12337216992372796 0 0 1:1 2:0.94930923 3:0.012662502 4:0.012232418 5:0.28125 6:0.04107143 7:0.71865082 
-1 0 0 0 1:1 2:0.24553382 3:-0.008927797 4:-0.037353314 5:0.28125 6:0.19977678 7:0.26686507 
-0 0.4390506989008468 0 0 1:1 2:0.96006173 3:-0.059976347 4:-0.062477928 5:0.28125 6:0.66662949 7:0.4327381 
-1 1 0 0 1:1 2:0.91057998 3:-0.23878588 4:-0.24234113 5:0.8888889 6:0.013392857 7:0 
-0 0.60972420526961824 0 0 1:1 2:0.98676765 3:0.23948455 4:0.2395371 5:0.28125 6:0.064620532 7:0.72579366 
-0 1 0 0 1:1 2:0.98589963 3:-0.32443365 4:-0.33353749 5:0.28125 6:0.019140625 7:0.18869048 
-0 1 0 0 1:1 2:0.98614085 3:-0.077445798 4:-0.080052666 5:0.28125 6:0.031361606 7:0.625 
-0 1 0 0 1:1 2:0.98824215 3:-0.078335889 4:-0.079932027 5:0.28125 6:0.0085379463 7:0.75734127 
-0 1 0 0 1:1 2:0.98463589 3:-0.39595002 4:-0.39721131 5:0.8888889 6:0.0073412699 7:0.25624999 
-0 1 0 0 1:1 2:0.9465186 3:0.026347207 4:0.010001682 5:0.8888889 6:0.0625 7:0.30513394 
-1 1 0 0 1:1 2:0.65833187 3:0.16343924 4:0.15265724 5:0.8888889 6:0.13690476 7:0.92779016 
-0 1 0 0 1:1 2:0.98248631 3:0.23133807 4:0.22647838 5:0.28125 6:0.03420759 7:0.76051587 
-0 1 0 0 1:1 2:0.97987461 3:-0.38140273 4:-0.38483062 5:0.8888889 6:0.16329364 7:0.60613841 
-0 1 0 0 1:1 2:0.99042302 3:-0.075631604 4:-0.077204324 5:0.28125 6:0.049888391 7:0.875 
-0 1 0 0.3124670434012099 1:1 2:0.95455164 3:0.28811586 4:0.26573098 5:0.8888889 6:0 7:0.44073662 
-0 1 0 0 1:1 2:0.96428353 3:-0.12888318 4:-0.12946652 5:0.28125 6:1.1678014 7:0.71369046 
-0 1 0 0 1:1 2:0.98133409 3:-0.07964576 4:-0.079004534 5:0.28125 6:0.012444196 7:0.65634918 
-0 1 0 0 1:1 2:0.9927035 3:-0.35873559 4:-0.35865325 5:0.28125 6:0.018526785 7:0.20912698 
-0 1 0 0 1:1 2:0.89479989 3:-0.066479467 4:-0.062011372 5:0.8888889 6:0.06765873 7:0.88415176 
-1 1 0 0 1:1 2:0.96154475 3:-0.74538422 4:-0.7417466 5:0.28125 6:0.20323661 7:0.30079365 
-0 1 0 0 1:1 2:0.90056211 3:0.14669326 4:0.15011957 5:0.8888889 6:0.19662699 7:0.89575893 
-0 0.065849809944805479 0 0 1:1 2:0.97311401 3:0.078569107 4:0.079514444 5:0.28125 6:0.014899554 7:0.020833334 
-1 0 0 0 1:1 2:0.49058023 3:0.034196533 4:0.014569189 5:0.28125 6:0.16177456 7:0.15634921 
-0 0.61443022306055195 0 0 1:1 2:0.96246958 3:0.28451881 4:0.28303173 5:0.28125 6:0.63526785 7:0.77718252 
-0 1 0 0 1:1 2:0.86444545 3:0.33788282 4:0.33757493 5:0.28125 6:0.42784598 7:1.7994047 
-1 0 0 0 1:1 2:0.7609024 3:-0.24721067 4:-0.24316676 5:0.28125 6:0.12779018 7:0.10912699 
-0 1 0 0 1:1 2:0.95670235 3:-0.12302101 4:-0.12858205 5:0.28125 6:0.029910713 7:0.71488094 
-0 1 0 0 1:1 2:0.99485368 3:-0.29398361 4:-0.29346555 5:0.28125 6:0.04095982 7:0.80297619 
-0 1 0 0 1:1 2:0.91246486 3:-0.31687546 4:-0.31799722 5:0.8888889 6:0.030059524 7:0.64999998 
-1 1 0.10044595129127111 0 1:1 2:0.93750113 3:-0.59131235 4:-0.59314132 5:0.8888889 6:0.030257937 7:0.29620537 
-0 1 0 0 1:1 2:0.99397606 3:-0.41957787 4:-0.41962746 5:0.28125 6:0.0047433036 7:0.39166668 
-0 1 0.4565607379319499 0.060564174140610813 1:1 2:0.93846959 3:-0.026864134 4:-0.03075519 5:0.28125 6:1.53298 7:0.64682537 
-1 1 0 0 1:1 2:0.89033717 3:0.14569251 4:0.14191952 5:0.8888889 6:0.071428575 7:0.28482142 
-0 1 0 0 1:1 2:0.92937237 3:0.10154366 4:0.1028278 5:0.8888889 6:0.13333334 7:0.9200893 
-0 1 0 0 1:1 2:0.85689253 3:-0.010205715 4:-0.010519461 5:0.8888889 6:0.0090277782 7:0.77578127 
-1 1 0 0 1:1 2:0.24266596 3:-0.082659952 4:-0.011620021 5:0.28125 6:0.25323662 7:0.45396826 
-1 0.57871888094111179 0 0 1:1 2:0.28473955 3:0.004798627 4:0.01462161 5:0.28125 6:0.10904018 7:0.36408731 
-0 1 0 0 1:1 2:0.98276889 3:0.077724881 4:0.077134497 5:0.8888889 6:0.071130954 7:1.0839286 
-0 1 0 0 1:1 2:0.89889771 3:0.26457509 4:0.24555795 5:0.8888889 6:0.019345239 7:0.50122768 
-0 1 0 0 1:1 2:0.95093703 3:0.19551556 4:0.19454154 5:0.28125 6:0.00011160714 7:0.70476192 
-0 1 0 0 1:1 2:0.97728854 3:-0.49398205 4:-0.49526507 5:0.8888889 6:0.00029761906 7:0.6111607 
-0 1 0 0 1:1 2:0.97459543 3:-0.38396394 4:-0.3872301 5:0.8888889 6:0.035119049 7:0.48939732 
-1 1 0.55438549201067155 0.87591807262017551 1:1 2:0.55410308 3:0.028924348 4:0.043532006 5:0.28125 6:1.2003348 7:1.5246031 
-0.718468977823573 1 0 0 1:1 2:0.99072337 3:-0.66484892 4:-0.66986072 5:0.28125 6:0.099776782 7:0.18313491 
-0 1 0 0 1:1 2:0.9707008 3:-0.30073622 4:-0.31333354 5:0.28125 6:0.077622771 7:1.0722222 
-0 1 0 0 1:1 2:0.97289205 3:-0.0069469498 4:-0.0080639869 5:0.8888889 6:0.0011904762 7:0.35770088 
-0 1 0 0 1:1 2:0.95576018 3:-0.21969177 4:-0.22203904 5:0.28125 6:0.022823662 7:0.89404762 
-0 1 0 0 1:1 2:0.95389867 3:-0.25152805 4:-0.25504524 5:0.8888889 6:0.037896827 7:0.85669643 
-1 1 0 0 1:1 2:0.20882168 3:-0.11233198 4:-0.108661 5:0.28125 6:0.31400669 7:0.5234127 
-0 1 0 0 1:1 2:0.97764224 3:0.14641497 4:0.14539947 5:0.8888889 6:0 7:0.25457588 
-0.51782721858414993 1 0 0 1:1 2:0.32614937 3:0.0095616067 4:0.010605539 5:0.28125 6:0.59012276 7:0.81686509 
-0 1 0 0 1:1 2:0.97363925 3:-0.23752184 4:-0.2391859 5:0.28125 6:0.0055803573 7:0.51190478 
-0 0.041080655787738875 0 0 1:1 2:0.97597051 3:-0.33244643 4:-0.33235922 5:0.8888889 6:0.059325397 7:0.61037946 
-0 1 0 0 1:1 2:0.94262743 3:0.064090379 4:0.064777978 5:0.8888889 6:0.38700396 7:0.77834821 
-0 1 0 0.99701915834134069 1:1 2:0.97223383 3:0.628914 4:0.62528938 5:0.28125 6:0.19732143 7:0.00059523812 
-0 1 0 0 1:1 2:0.96447599 3:-0.30727786 4:-0.31315759 5:0.8888889 6:0.0044642859 7:0.43191963 
-1 0 0 0 1:1 2:0.71294063 3:-0.27146712 4:-0.31927666 5:0.28125 6:0.21908481 7:0.25277779 
-0 1 0 0 1:1 2:0.91248065 3:-0.55119026 4:-0.55297464 5:0.28125 6:0.08108259 7:0.83333331 
-0 0.042133820635253574 0 0 1:1 2:0.97375083 3:0.68444407 4:0.68385756 5:0.28125 6:0.14296874 7:1.5916667 
-0 1 0 0 1:1 2:0.98554909 3:-0.015528757 4:-0.015510206 5:0.28125 6:0.092578128 7:0.80297619 
-0 1 0 0 1:1 2:0.97665763 3:-0.53296679 4:-0.53444922 5:0.28125 6:0.018750001 7:0.29761904 
-1 1 0 0 1:1 2:0.92078257 3:-0.22070451 4:-0.22805406 5:0.8888889 6:0.0036706349 7:0.11462054 
-0 1 0 0 1:1 2:0.96582127 3:0.05214275 4:0.04473833 5:0.8888889 6:0.049305554 7:0.37745535 
-1 1 0 0 1:1 2:0.76234162 3:0.0041920454 4:-0.021785876 5:0.8888889 6:0.17926587 7:0.59207588 
-0 1 0 0 1:1 2:0.98394477 3:-0.084807709 4:-0.090035662 5:0.28125 6:0.067410715 7:0.62559521 
-0 1 0 0 1:1 2:0.9967804 3:-0.37830028 4:-0.37832481 5:0.28125 6:0.0034598215 7:0.25496033 
-0 1 0 0 1:1 2:0.99128604 3:-0.056400336 4:-0.056645546 5:0.28125 6:0.011104911 7:0.5121032 
-0 1 0 0 1:1 2:0.98479849 3:-0.064708069 4:-0.064677052 5:0.28125 6:0.01389509 7:0 
-0.45055323132236763 1 0 0 1:1 2:0.95245445 3:-0.1665213 4:-0.16847748 5:0.8888889 6:0.5656746 7:0.52924109 
-0 1 0 0 1:1 2:0.99622458 3:0.053899262 4:0.053762782 5:0.28125 6:0.0021763393 7:0 
-0 1 0 0 1:1 2:0.97597545 3:0.073937438 4:0.065577522 5:0.8888889 6:0.022123016 7:0.39899555 
-0 0 0 1 1:1 2:0.9353525 3:0.63779336 4:0.63416946 5:0.28125 6:0.2280134 7:0.31111112 
-0 1 0 0 1:1 2:0.9683221 3:0.33420929 4:0.31678417 5:0.8888889 6:0.053472221 7:1.0098214 
-0 1 0 0 1:1 2:0.95470655 3:-0.43236271 4:-0.43632656 5:0.8888889 6:0.037599206 7:0.45078126 
-1 0 0 0 1:1 2:0.79613608 3:-0.21589057 4:-0.22207719 5:0.28125 6:0.18928571 7:0.021230159 
-0 1 0 0 1:1 2:0.97213382 3:0.11937369 4:0.11691178 5:0.8888889 6:0.026587302 7:0.62488842 
-0 1 0 0 1:1 2:0.97958267 3:0.038620412 4:0.037645493 5:0.28125 6:0.061941963 7:0.51666665 
-0 1 0 0 1:1 2:0.98827869 3:0.13834867 4:0.13818948 5:0.8888889 6:0.032043651 7:0.45993304 
-0 1 0 0 1:1 2:0.97410089 3:-0.20512013 4:-0.21102922 5:0.28125 6:0.036328126 7:0.91626984 
-1 0.59251288386240353 0 0.5307350799725884 1:1 2:0.24283865 3:0.18678239 4:0.15369594 5:0.28125 6:0.44090402 7:0.37718254 
-0.42988751557478394 1 0 0 1:1 2:0.95540136 3:-0.43904996 4:-0.43990898 5:0.8888889 6:0.031150794 7:0.30279016 
-0 1 0 0 1:1 2:0.88353217 3:0.041375667 4:0.038665969 5:0.8888889 6:0.076785713 7:1.0251116 
-0 1 0 0 1:1 2:0.93126595 3:0.13127717 4:0.12863846 5:0.8888889 6:0.067460321 7:1.0352678 
-0 1 0 0 1:1 2:0.9576 3:0.6038152 4:0.60638368 5:0.28125 6:0.24313617 7:0 
-1 1 0 0 1:1 2:0.059493568 3:-0.10272976 4:-0.14077102 5:0.28125 6:0.086495534 7:0.36726192 
-0 1 0 0 1:1 2:0.97152233 3:-0.01398362 4:-0.014282274 5:0.8888889 6:0.056547619 7:0.34241071 
-0 0.25608841086052653 0 0 1:1 2:0.99257469 3:-0.064772405 4:-0.066329516 5:0.28125 6:0.025223214 7:0.15476191 
-0 1 0 0 1:1 2:0.98655909 3:0.033734977 4:0.031105597 5:0.28125 6:0.031640626 7:0.01468254 
-0 1 0 0 1:1 2:0.96815884 3:-0.25591177 4:-0.25961792 5:0.8888889 6:0.068452381 7:0.27232143 
-1 0 0 0 1:1 2:0.82542437 3:-0.3771497 4:-0.37598881 5:0.28125 6:0.11506697 7:0.16031747 
-0 1 0 0 1:1 2:0.88174188 3:-0.093615644 4:-0.10002767 5:0.8888889 6:0.12708333 7:0.86741072 
-0 1 0 0 1:1 2:0.9847756 3:-0.13263781 4:-0.13327864 5:0.28125 6:0.021763394 7:0.65793651 
-1 1 0 0 1:1 2:0.96774399 3:-0.57984525 4:-0.57938141 5:0.28125 6:0.039787948 7:0.11230159 
-0 0.36914456853581562 0 0 1:1 2:0.97594702 3:0.53706402 4:0.53569555 5:0.28125 6:0.33041295 7:0.0067460318 
-0 1 0 0 1:1 2:0.98548883 3:0.2559368 4:0.25816751 5:0.28125 6:0.0046316963 7:0.66289681 
-0 0.42813417481235627 0 0 1:1 2:0.85304493 3:-0.29190284 4:-0.29062861 5:0.28125 6:0.1328125 7:1.2456349 
-0 1 0 0 1:1 2:0.92713338 3:0.5075146 4:0.51755446 5:0.28125 6:0.050055802 7:1.8376985 
-0 1 0 0 1:1 2:0.93346632 3:0.0054283999 4:0.00071856572 5:0.8888889 6:0.054662697 7:0.76060265 
-0 1 0 0 1:1 2:0.99031395 3:-0.715837 4:-0.7163561 5:0.28125 6:0.27611607 7:0.29126984 
-0 1 0 0 1:1 2:0.97887945 3:0.1451094 4:0.14082135 5:0.28125 6:0.00078125001 7:0.53214288 
-0 0.48838826311852945 0 0 1:1 2:0.44143447 3:-0.042426638 4:-0.073358864 5:0.28125 6:0.03219866 7:0.73591268 
-0 1 0 0 1:1 2:0.9297533 3:0.023278143 4:0.024957938 5:0.8888889 6:0.049305554 7:0.97946429 
-1 0 0 0 1:1 2:0.37825221 3:0.073041208 4:0.022378825 5:0.28125 6:0.093526788 7:0.29027778 
-0 1 0 0 1:1 2:0.973221 3:-0.29792684 4:-0.29987907 5:0.8888889 6:0.045734126 7:0.83716518 
-0 1 0 0 1:1 2:0.96895182 3:-0.23340683 4:-0.2344657 5:0.28125 6:0.018638393 7:0.089682542 
-1 1 0 0 1:1 2:0.85009468 3:-0.57639533 4:-0.57436401 5:0.8888889 6:0.17509921 7:0.49910715 
-0 1 0 0 1:1 2:0.98300868 3:-0.39352053 4:-0.39833066 5:0.8888889 6:0 7:0.85502231 
-1 0 0 0 1:1 2:0.38492584 3:-0.10333616 4:-0.1438801 5:0.28125 6:0.43705356 7:0.6136905 
-0 1 0 0 1:1 2:0.93617982 3:-0.47034499 4:-0.4698928 5:0.8888889 6:0.10426588 7:0.91774553 
-0 1 0 0 1:1 2:0.98930913 3:0.19259584 4:0.18952446 5:0.28125 6:0.045256697 7:0.75972223 
-0 1 0 0 1:1 2:0.96378696 3:0.21261048 4:0.20571822 5:0.28125 6:0.0050223214 7:0.75535715 
-0 0.078176658058071932 0 0 1:1 2:0.97666508 3:0.052164715 4:0.052262977 5:0.28125 6:0.10909598 7:0.73015875 
-0.1655039498532011 1 0 0 1:1 2:0.39893952 3:0.36629987 4:0.19272131 5:0.28125 6:0.04107143 7:1.1049603 
-0 1 0 0 1:1 2:0.94667822 3:-0.042103935 4:-0.054044865 5:0.28125 6:0.012165179 7:0.6371032 
-0 1 0 0 1:1 2:0.99564373 3:-0.71095669 4:-0.71142006 5:0.28125 6:0.10680804 7:0.30496031 
-0 1 0 0 1:1 2:0.94786561 3:-0.42232314 4:-0.42503089 5:0.28125 6:0.00016741072 7:0.52738094 
-0 1 0 0 1:1 2:0.99856436 3:0.13543575 4:0.13532421 5:0.28125 6:0.0021763393 7:0 
-0 1 0 0 1:1 2:0.976955 3:0.061110519 4:0.058155976 5:0.28125 6:0.034765624 7:0.56408733 
-0 1 0 0 1:1 2:0.9110896 3:0.040963516 4:0.040308818 5:0.8888889 6:0.0051587303 7:0.58683038 
-0 1 0 0 1:1 2:0.98537779 3:-0.14056395 4:-0.14420956 5:0.8888889 6:0.32242063 7:0.35848215 
-0 1 0 0 1:1 2:0.97485381 3:0.5230723 4:0.52102995 5:0.28125 6:0.065792412 7:1.8228174 
-0 1 0 0 1:1 2:0.98054457 3:-0.2291555 4:-0.22944587 5:0.28125 6:0.013058036 7:0.47341269 
-0 1 0 0 1:1 2:0.98226202 3:-0.67701709 4:-0.67627293 5:0.28125 6:0.75362724 7:0.49583334 
-0 1 0 0 1:1 2:0.98483926 3:0.090204239 4:0.090098552 5:0.8888889 6:0.011706349 7:0.52756697 
-0 1 0 0 1:1 2:0.95490932 3:0.68093979 4:0.68537015 5:0.28125 6:0.040680803 7:0.43948412 
-0 1 0 0 1:1 2:0.9577781 3:-0.36839473 4:-0.37993306 5:0.8888889 6:0.0070436508 7:0.29229912 
-0 0 0 0.4999657774761031 1:1 2:0.73968369 3:0.054278933 4:0.04387752 5:0.28125 6:1.2492746 7:1.0085317 
-0 1 0 0 1:1 2:0.97630197 3:-0.24003512 4:-0.23919322 5:0.28125 6:0.036216516 7:0.66091269 
-1 -0 0 0 1:1 2:0.83366692 3:-0.42003518 4:-0.44304413 5:0.5625 6:0.23348214 7:0.42023811 
-0 -1 0 0 1:1 2:0.90086168 3:-0.49713913 4:-0.48801604 5:0.5625 6:0.60022324 7:0.77063495 
-0 -0.80157406753939586 0 0 1:1 2:0.98215657 3:-0.027238753 4:-0.027845273 5:0.5625 6:0.10669643 7:0.63214284 
-0 -1 0 0 1:1 2:0.97004706 3:0.0075505851 4:0.010619619 5:0.5625 6:0.12209821 7:0.75476193 
-0 -0.97086452039547744 0 0 1:1 2:0.81921387 3:0.22270119 4:0.21135284 5:0.5625 6:0.671875 7:1.886508 
-0 -1 0 0 1:1 2:0.97285634 3:0.086221837 4:0.081344284 5:0.5625 6:0.58437502 7:0.27738094 
-0 -1 0.071227297604300605 0 1:1 2:0.98239386 3:-0.49865755 4:-0.49883959 5:0.5625 6:0.19151786 7:1.1888889 
-0 -0 0 1 1:1 2:0.86315262 3:0.68153334 4:0.62235594 5:0.5625 6:0.027455358 7:0.40634921 
-0 -0.63400925306549749 0 0 1:1 2:0.98505169 3:0.21590288 4:0.21642347 5:0.5625 6:0.49910715 7:0.28968254 
-0.74052378771114946 -1 1 1 1:1 2:0.82533896 3:0.27596039 4:0.26884836 5:0.5625 6:0.69062501 7:0 
-1 -0 0 0 1:1 2:0.75573552 3:-0.18330243 4:-0.19148539 5:0.5625 6:0.25915179 7:0.047619049 
-0 -1 0 0 1:1 2:0.9905225 3:0.11635286 4:0.11476336 5:0.5625 6:0.047098216 7:0.6111111 
-0 -0 0 1 1:1 2:0.93783814 3:0.57913953 4:0.58049959 5:0.5625 6:0.20535715 7:0.54563493 
-0 -0.88732369749968343 0 0 1:1 2:0.93503731 3:-0.14041023 4:-0.14075731 5:0.5625 6:0.55513394 7:0.28095239 
-0 -1 0 0 1:1 2:0.98257804 3:0.15023087 4:0.14924337 5:0.5625 6:0.012053572 7:0.60714287 
-0 -1 0 0 1:1 2:0.95676488 3:-0.018729161 4:-0.017474471 5:0.5625 6:0.11897322 7:0.73333335 
-0 -0.31806734942871878 0 0 1:1 2:0.96068192 3:0.15374129 4:0.15682763 5:0.5625 6:0.1046875 7:1.7722223 
-0 -1 0 0 1:1 2:0.98073882 3:-0.12160366 4:-0.12448025 5:0.5625 6:0.21160714 7:0.74285716 
-1 -1 0 0 1:1 2:0.84551114 3:-0.38388565 4:-0.38438624 5:0.5625 6:0.094866075 7:0.043650795 
-0 -0.93226587443266418 0.19857100340083131 1 1:1 2:0.97612435 3:-0.6571036 4:-0.654948 5:1.7777778 6:0.1234127 7:0.56584823 
-0 -1 0 1 1:1 2:0.9915728 3:0.79434997 4:0.79101086 5:0.5625 6:0.027008928 7:0.94047618 
-0 -1 0 0 1:1 2:0.96644169 3:-0.1375857 4:-0.1367802 5:0.5625 6:0.18392856 7:0.6924603 
-0 -1 0 0 1:1 2:0.98990309 3:-0.11624315 4:-0.11658026 5:0.5625 6:0.06651786 7:0.025 
-0 -0 0 1 1:1 2:0.96698463 3:0.62744594 4:0.62464237 5:0.5625 6:0.28102678 7:1.3083333 
-0.07414875427402802 -0 0.63747119054843615 0.5545188185487212 1:1 2:0.86094701 3:0.077978216 4:0.06918022 5:1.7777778 6:0.68055558 7:0.82566965 
-0 -0.05591904698048375 0 0 1:1 2:0.95965558 3:-0.17522544 4:-0.17523783 5:0.5625 6:0.016517857 7:0.75357145 
-0 -1 0 0 1:1 2:0.98398507 3:0.32574049 4:0.3254385 5:0.5625 6:0.62812501 7:0.44444445 
-0 -1 0 0 1:1 2:0.9856686 3:0.033741318 4:0.033865232 5:0.5625 6:0.26316965 7:0.66428572 
-1 -0 0 0 1:1 2:0.5884192 3:-0.24857117 4:-0.27398604 5:0.5625 6:0.49620536 7:0.88134921 
-0 -0.84349751130854378 0 0 1:1 2:0.42245388 3:0.0087198224 4:0.10166354 5:0.5625 6:0.08191964 7:0.87063491 
-0 -1 0 0 1:1 2:0.97799748 3:-0.063246585 4:-0.062982135 5:0.5625 6:0.25357142 7:0.72619045 
-0 -0.97526162200691391 0 0 1:1 2:0.98465967 3:0.0350141 4:0.035520308 5:0.5625 6:0.31808037 7:0.63809526 
-0 -1 0 0 1:1 2:0.95088518 3:0.040891882 4:0.048492823 5:0.5625 6:0.1484375 7:0.70317459 
-0 -0.9373112764901399 0 0 1:1 2:0.95288837 3:-0.0095618963 4:-0.0092533017 5:0.5625 6:0.25624999 7:0.67817461 
-0 -1 0 0 1:1 2:0.98352963 3:-0.19265091 4:-0.19273771 5:0.5625 6:1.2337054 7:0.53373015 
-1 -0 0 0 1:1 2:0.80782855 3:-0.063529007 4:-0.08333309 5:0.5625 6:0.12276786 7:0.035714287 
-0.67182476481775999 -0 0 0 1:1 2:0.97767067 3:-0.50121468 4:-0.50227427 5:1.7777778 6:0.092460319 7:0.24084821 
-0 -0.30408033313145733 0 0 1:1 2:0.97724438 3:0.074101143 4:0.072908737 5:0.5625 6:0.17254464 7:0.81349206 
-0 -1 0 1 1:1 2:0.96408087 3:0.72680134 4:0.70593065 5:0.5625 6:0.128125 7:0.072222225 
-0 -1 0 0 1:1 2:0.9736532 3:-0.0087841898 4:-0.0089140758 5:0.5625 6:0.25580359 7:0.76785713 
-1 -0 0 0 1:1 2:0.40997627 3:-0.034659997 4:-0.084756017 5:0.5625 6:0.3939732 7:0.90238094 
-1 -1 0 0 1:1 2:0.97838455 3:-0.48152274 4:-0.48572099 5:0.5625 6:0.83816963 7:0.24880952 
-0 -1 0 0 1:1 2:0.95794845 3:-0.23992851 4:-0.24983697 5:0.5625 6:0.0171875 7:0.67777777 
-0 -0.4211996897504478 0 0 1:1 2:0.99265367 3:0.085680991 4:0.081784941 5:0.5625 6:0.061607141 7:0.59444445 
-0 -1 0 0 1:1 2:0.89892781 3:-0.56773967 4:-0.55823493 5:0.5625 6:0.096428573 7:0.72142857 
-0 -0.75608243499858507 0.26719747869892807 0 1:1 2:0.95364249 3:-0.24863665 4:-0.24697459 5:1.7777778 6:0.16309524 7:1.411384 
-0 -1 0 0 1:1 2:0.98670113 3:-0.33048874 4:-0.33105445 5:0.5625 6:0.050446428 7:0.90238094 
-1 -0.29391055902251406 0 0 1:1 2:0.90204525 3:-0.25491819 4:-0.26462394 5:0.5625 6:0.16763394 7:0 
-0 -0.3424361636357669 0 0 1:1 2:0.99357814 3:-0.55556107 4:-0.55631226 5:0.5625 6:0.10647321 7:0.41309524 
-0 -1 0 0 1:1 2:0.99195713 3:-0.075462908 4:-0.074771486 5:0.5625 6:0.021651786 7:0.14563492 
-0 -0.81684473978320737 0 1 1:1 2:0.95935792 3:0.67604607 4:0.66036737 5:0.5625 6:0.042410713 7:0.40595239 
-0 -1 0 0 1:1 2:0.984698 3:-0.25151098 4:-0.2505013 5:0.5625 6:0.031026786 7:0.6281746 
-0 -0 0 1 1:1 2:0.82509845 3:0.59571052 4:0.57709008 5:0.5625 6:0.24129464 7:0.54484129 
-0 -1 0 0 1:1 2:0.64563704 3:-0.0035224722 4:0.0068639275 5:0.5625 6:1.0234375 7:1.5111111 
-0 -1 0 0 1:1 2:0.91051322 3:0.066255219 4:0.087002754 5:0.5625 6:0.024776787 7:0.44999999 
-0 -1 0 0 1:1 2:0.96993881 3:0.088127844 4:0.089217111 5:0.5625 6:0.015178571 7:0.88849205 
-0 -1 0 0 1:1 2:0.95686519 3:-0.34978285 4:-0.35561734 5:0.5625 6:0.82120538 7:1.4178572 
-0 -0.17471812659177294 0 0 1:1 2:0.99071461 3:-0.049107257 4:-0.049304657 5:0.5625 6:0.0390625 7:0.47777778 
-0 -1 0 0 1:1 2:0.87428659 3:0.20924734 4:0.18427926 5:0.5625 6:0.80602676 7:0.83690476 
-0 -1 0 0 1:1 2:0.9776352 3:0.086644918 4:0.086677365 5:1.7777778 6:0.1765873 7:0.64508927 
-0 -0.11271429147299222 0 0 1:1 2:0.96779186 3:-0.039074861 4:-0.040683825 5:0.5625 6:0.88727677 7:1.3281746 
-0 -0.50600314255503265 0 0 1:1 2:0.92122871 3:-0.37544027 4:-0.37694034 5:1.7777778 6:0.42182541 7:0.61495537 
-0 -1 0 0 1:1 2:0.97704697 3:-0.51389706 4:-0.51431412 5:0.5625 6:0.34620535 7:0.96944445 
-0 -0.06536920920997237 0 0 1:1 2:0.96300137 3:-0.1211367 4:-0.11809682 5:0.5625 6:0.12611607 7:0.6623016 
-0 -1 0.20299535808145555 0.17272224951271892 1:1 2:0.98844773 3:-0.79184902 4:-0.79198295 5:0.5625 6:0.48392856 7:0.5472222 
-0 -1 0 0 1:1 2:0.93643355 3:0.086448148 4:0.088071376 5:0.5625 6:0.0069196429 7:0.54880953 
-0 -0 0 1 1:1 2:0.92457765 3:0.54979801 4:0.54778165 5:0.5625 6:0.28549108 7:0.38611111 
-0 -1 0 0 1:1 2:0.99641019 3:-0.026621699 4:-0.027015628 5:1.7777778 6:0.018650794 7:0.68325895 
-0 -1 0 0 1:1 2:0.9602406 3:-0.058771268 4:-0.058274042 5:0.5625 6:0.18348214 7:0.69999999 
-0 -1 0 0 1:1 2:0.9857049 3:-0.30158663 4:-0.30306378 5:0.5625 6:0.013169643 7:0.44563493 
-0 -1 0 0 1:1 2:0.98349828 3:-0.14101024 4:-0.13902229 5:0.5625 6:0.2078125 7:0.72420633 
-0 -1 0 0 1:1 2:0.99504405 3:0.011523557 4:0.011261156 5:0.5625 6:0.16071428 7:0.74007934 
-0 -0.84761476633060517 0 0 1:1 2:0.61420292 3:-0.22717966 4:-0.22972497 5:0.5625 6:0.063169643 7:1.2710317 
-0 -0.61013272751631609 0 0 1:1 2:0.89838481 3:-0.060810901 4:-0.062761351 5:0.5625 6:0.78392857 7:0.50158733 
-0 -0.23057176728135367 0 0 1:1 2:0.99408531 3:-0.047146618 4:-0.047370657 5:0.5625 6:0.13772321 7:0.60039681 
-0 -0.32295621898646648 0 1 1:1 2:0.93819928 3:0.47175363 4:0.46539739 5:0.5625 6:0.47589287 7:0.61706346 
-1 -0.0014645997070112443 0 0 1:1 2:0.57445341 3:-0.13923638 4:-0.13790321 5:0.5625 6:0.58459824 7:0.49484128 
-0 -1 0.1193103858384493 0 1:1 2:0.89618611 3:-0.19237486 4:-0.2281161 5:0.5625 6:0.057589285 7:1.5349207 
-0 -1 0 0 1:1 2:0.9848038 3:-0.29233816 4:-0.29663241 5:0.5625 6:0.012053572 7:0.59484124 
-0 -0.54993630203000476 0 0 1:1 2:0.89392686 3:-0.14670353 4:-0.15314642 5:1.7777778 6:0.41746032 7:0.41473213 
-0 -0.27646673874273525 0 0 1:1 2:0.97886884 3:-0.27704579 4:-0.27735496 5:0.5625 6:0.47566965 7:0.23174603 
-0 -1 0 0 1:1 2:0.96595621 3:-0.21886037 4:-0.2193924 5:0.5625 6:0.21227679 7:0 
-0 -0.5121232251962835 0 0 1:1 2:0.98192352 3:-0.14160329 4:-0.14238022 5:0.5625 6:0.24263392 7:0.56547618 
-0 -1 0 0 1:1 2:0.51222146 3:0.11305442 4:-0.17959993 5:0.5625 6:0.068750001 7:0.60714287 
-0 -1 0 1 1:1 2:0.88267934 3:0.45589367 4:0.43434891 5:0.5625 6:0.60223216 7:0.92777777 
-1 -1 1 0 1:1 2:0.060085203 3:0.26564121 4:-0.083178423 5:0.5625 6:0.046205357 7:0.79246032 
-0 -1 0 1 1:1 2:0.98417568 3:0.73996747 4:0.73832095 5:0.5625 6:0.037723213 7:1.2833333 
-0 -0.13114102966469299 0 0 1:1 2:0.96384203 3:0.027089013 4:0.027682794 5:0.5625 6:0.24084821 7:0.67658728 
-0 -0.98317420319491766 0 0 1:1 2:0.98889828 3:-0.10946129 4:-0.10965849 5:0.5625 6:0.33125001 7:0.57936507 
-0 -1 0 0 1:1 2:0.94643843 3:-0.0056882231 4:-0.0040999432 5:0.5625 6:1.0901786 7:0.87341267 
-1 -0 0 0 1:1 2:0.89399046 3:-0.43611455 4:-0.43612209 5:0.5625 6:0.39375001 7:0.37261903 
-0 -0.71799414396626893 0 0 1:1 2:0.97081304 3:0.04047516 4:0.040984295 5:0.5625 6:0.11785714 7:0.74563491 
-0 -1 0 0 1:1 2:0.95744157 3:-0.66741735 4:-0.6707657 5:0.5625 6:0.16863839 7:0.4968254 
-0 -1 0 0 1:1 2:0.98612154 3:-0.46091342 4:-0.46073544 5:0.5625 6:0.1046875 7:0.1968254 
-1 -0 0 0 1:1 2:0.32829583 3:0.067521103 4:-0.018841285 5:0.5625 6:0.32756695 7:0.76150793 
-0 -1 0 0 1:1 2:0.97589946 3:-0.65669262 4:-0.66251791 5:0.5625 6:0.26294643 7:0.58015871 
-0 -1 0 0 1:1 2:0.97288817 3:-0.31300732 4:-0.31947875 5:0.5625 6:0.024888393 7:0.59623015 
-0 -0 0 1 1:1 2:0.98329395 3:0.67272562 4:0.67240846 5:0.5625 6:0.14799108 7:0.28055555 
-1 -0 0 0 1:1 2:0.75172549 3:0.15250199 4:0.0224692 5:0.5625 6:0.044196427 7:0.0015873016 
-0 -0.38387906228213942 0 0 1:1 2:0.82804936 3:-0.26814824 4:-0.27571291 5:1.7777778 6:0 7:0.37008929 
-0 -1 0.78723280809216267 1 1:1 2:0.77907437 3:0.7280516 4:0.69422764 5:0.5625 6:0.73660713 7:1.119246 
-0 -1 0 0 1:1 2:0.98832387 3:-0.079105683 4:-0.079215065 5:0.5625 6:0.184375 7:0.67341268 
-0 -1 0.10549186852174587 0 1:1 2:0.80633706 3:0.62719226 4:0.58690739 5:0.5625 6:0.025446428 7:1.9063492 
-0.98381296355239656 -0 0 0 1:1 2:0.44166887 3:-0.0042548543 4:-0.001464254 5:0.5625 6:0.6090402 7:1.2365079 
-1 -1 0 0 1:1 2:0.77114969 3:-0.12467681 4:-0.11513077 5:0.5625 6:0.84921873 7:0.22638889 
-0 -1 0 0 1:1 2:0.94049978 3:-0.0014954993 4:0.0037460916 5:0.5625 6:0.020424107 7:0.80257934 
-1 -1 0 0 1:1 2:0.94688821 3:-0.51911843 4:-0.54660803 5:0.5625 6:0.043415178 7:0.19662699 
-0 -1 0 1 1:1 2:0.99141431 3:0.75198293 4:0.75233048 5:0.5625 6:0.0033482143 7:1.4184524 
-1 -0 0 0 1:1 2:0.76559901 3:-0.35779026 4:-0.34986261 5:0.5625 6:0.20022321 7:0.25277779 
-0 -0.61008578310152395 0 0 1:1 2:0.90879953 3:0.047776274 4:0.043845434 5:0.5625 6:0.48415178 7:0.041666668 
-0 -0 0 0.76342625860132096 1:1 2:0.80969107 3:0.46429366 4:0.42589626 5:0.5625 6:0.2704241 7:0.19384921 
-0 -1 0 0 1:1 2:0.97384477 3:-0.59920281 4:-0.59982884 5:0.5625 6:0.077343747 7:0.62103176 
-0 -1 0 0 1:1 2:0.98473257 3:0.12251888 4:0.12049481 5:0.5625 6:0.0021205358 7:0.42619047 
-0 -1 0 0 1:1 2:0.96761382 3:0.10163717 4:0.097166479 5:0.5625 6:0.043638393 7:1.6234127 
-0 -0.82258778682471945 0 0 1:1 2:0.98703545 3:0.238001 4:0.2367281 5:0.5625 6:0.01484375 7:0.54345238 
-1 -0 0 0 1:1 2:0.79128349 3:-0.012780199 4:-0.0094583789 5:0.5625 6:0.40569195 7:0.034722224 
-0 -0.13866239064119498 0 0 1:1 2:0.63613063 3:0.44142792 4:0.44529048 5:0.5625 6:0.053459823 7:0.39484128 
-0 -1 0 0 1:1 2:0.97351277 3:-0.020246737 4:-0.020903047 5:0.5625 6:0.22589286 7:0.70535713 
-1 -1 0 0 1:1 2:0.98818725 3:-0.59890056 4:-0.60038006 5:0.5625 6:0.19151786 7:0.22182539 
-0 -1 0 0 1:1 2:0.92265373 3:0.18134375 4:0.17372601 5:0.5625 6:0.0020089287 7:0.57579362 
-0 -1 0 0 1:1 2:0.96601278 3:-0.037674159 4:-0.038348969 5:1.7777778 6:0.32936507 7:0.58459824 
-0 -1 0 0 1:1 2:0.98751718 3:-0.12454772 4:-0.12508208 5:0.5625 6:0.0070312498 7:0.49583334 
-0 -1 0 0 1:1 2:0.97857583 3:-0.051815566 4:-0.051400386 5:0.5625 6:0.053459823 7:0.0095238099 
-0 -1 0 0 1:1 2:0.88610351 3:-0.14903551 4:-0.14812464 5:0.5625 6:0.99341518 7:0.99007934 
-0 -1 0 0 1:1 2:0.98358393 3:0.26081008 4:0.26020032 5:0.5625 6:0.01015625 7:0.5714286 
-0 -0 0 1 1:1 2:0.89447969 3:0.53936476 4:0.52547669 5:0.5625 6:0.29118302 7:0.71150792 
-0 -1 0 0 1:1 2:0.75748146 3:-0.36764637 4:-0.37475976 5:0.5625 6:0.018973215 7:0.57321429 
-0 -0.044942743899098948 0 0 1:1 2:0.96187127 3:0.68169457 4:0.68184811 5:0.5625 6:0.027232142 7:1.1609128 
-0 -0.99403188618742711 0 0 1:1 2:0.96876174 3:-0.055909775 4:-0.05917928 5:0.5625 6:0.013727679 7:0.69285715 
-0 -0.80390751534637328 0 0 1:1 2:0.97266245 3:-0.51467884 4:-0.52303487 5:0.5625 6:0.11640625 7:0.7265873 
-0 -0.013251863473046788 0 0 1:1 2:0.67315477 3:0.47958457 4:0.46690562 5:0.5625 6:0.026897321 7:0.53313494 
-0 -1 0 0 1:1 2:0.98446393 3:0.087216102 4:0.087241784 5:0.5625 6:0.042633928 7:0.8107143 
-0 -1 0 0 1:1 2:0.92461932 3:-0.41296998 4:-0.41254735 5:0.5625 6:0.003125 7:0.43630952 
-1 -1 1 0.16255754601795855 1:1 2:-0.29941362 3:0.67318219 4:-0.56727362 5:1.7777778 6:0.022420635 7:1.0018973 
-1 -1 0.18634759827156905 0 1:1 2:0.25072113 3:0.29954901 4:-0.41226423 5:0.5625 6:0.022991071 7:0.30952382 
-0 -0.68498489622255165 0 0.45794098455231808 1:1 2:0.98271686 3:-0.60321891 4:-0.60811031 5:1.7777778 6:0.032142859 7:0.31674108 
-0 -1 0 0 1:1 2:0.97883707 3:-0.41867432 4:-0.41923448 5:0.5625 6:0.028459821 7:0.87619048 
-0 -1 0 0 1:1 2:0.96639448 3:-0.47480023 4:-0.47872907 5:0.5625 6:0.058816966 7:0.1765873 
-0 -1 0 0 1:1 2:0.99165899 3:-0.53079987 4:-0.53131092 5:0.5625 6:0.039732143 7:0.24761905 
-0 -0.27242692950123087 0 0 1:1 2:0.97671318 3:0.059701126 4:0.061381795 5:0.5625 6:0.038839284 7:1.0367063 
-1 -0 0 0 1:1 2:0.67067158 3:-0.17325974 4:-0.2042093 5:0.5625 6:0.48995537 7:0.47579366 
-1 -0 0 0 1:1 2:0.58657157 3:-0.023595635 4:0.031088054 5:0.5625 6:0.16830356 7:0.34305555 
-0 -0 0 1 1:1 2:0.91194838 3:0.64721292 4:0.62524557 5:0.5625 6:0.34743303 7:0.4763889 
-0 -1 0 0 1:1 2:0.92928541 3:-0.069851361 4:-0.070359588 5:0.5625 6:0 7:0.013492064 
-1 -1 0 0 1:1 2:0.1727363 3:-0.022917619 4:-0.24563128 5:0.5625 6:0.3013393 7:0.71984124 
-0 -1 0 0 1:1 2:0.97460973 3:-0.38950422 4:-0.39166796 5:0.5625 6:0.02890625 7:0.50416666 
-1 -0 0 0 1:1 2:0.58160514 3:-0.072693467 4:-0.060973514 5:0.5625 6:0.088169642 7:0.39246032 
-0 -1 0 0 1:1 2:0.88103461 3:-0.41528377 4:-0.41825679 5:0.5625 6:0.07232143 7:1.0269841 
-0 -1 0 0 1:1 2:0.9807148 3:-0.74612421 4:-0.7462641 5:0.5625 6:0.19229911 7:0.41805556 
-0 -0.86936940507776739 0 0 1:1 2:0.6403448 3:0.33593097 4:0.12876445 5:0.5625 6:0.10848214 7:0.87896824 
-1 -0 0 0 1:1 2:0.80407578 3:-0.48644179 4:-0.50565529 5:0.5625 6:0.38716519 7:0.40238094 
-0.49740409512680639 -1 1 1 1:1 2:0.95857888 3:0.81386882 4:0.81762367 5:0.5625 6:0.011383928 7:0.04107143 
-0 -1 0 0 1:1 2:0.97280538 3:-0.048946138 4:-0.050725363 5:0.5625 6:0.23102678 7:0.72261906 
-0.44040151181813531 -1 0.54252786573817835 1 1:1 2:0.98327523 3:0.7263819 4:0.72360957 5:0.5625 6:0.090959825 7:1.9117063 
-0.35435233368945029 -1 0.40631699462769649 0 1:1 2:0.95479012 3:0.14060996 4:0.14677538 5:1.7777778 6:0.0021825398 7:0 
-0 -1 0 0 1:1 2:0.68078321 3:-0.033348907 4:-0.016130082 5:0.5625 6:0.91305804 7:1.7513889 
-0 -0.64468403572332489 0 0 1:1 2:0.94397199 3:-0.075539894 4:-0.069475688 5:1.7777778 6:0.2077381 7:0.54631698 
-1 -1 0 0 1:1 2:0.38501623 3:-0.075185888 4:-0.066624746 5:0.5625 6:0.64375001 7:0.92182541 
-1 -0 0 0 1:1 2:0.31390107 3:0.002195023 4:0.023965692 5:0.5625 6:0.1579241 7:0.66507936 
-0 -1 0 0 1:1 2:0.99261659 3:-0.017847138 4:-0.01793294 5:0.5625 6:0.18392856 7:0.83888888 
-0 -1 0 0 1:1 2:0.93127644 3:-0.29086635 4:-0.29623011 5:0.5625 6:0.018861607 7:0.087103173 
-0 -0 0.56623480340632704 0 1:1 2:0.93486625 3:0.40554917 4:0.39933702 5:1.7777778 6:0.020238096 7:0.4780134 
-0 -0.45604192930139115 0 0 1:1 2:0.96792686 3:-0.37933904 4:-0.38001746 5:0.5625 6:0.079687499 7:0.86825395 
-1 -1 0 0 1:1 2:0.95657915 3:-0.57874429 4:-0.58162761 5:0.5625 6:0.078571431 7:0.24027778 
-1 -0 0 0 1:1 2:0.58113921 3:-0.076720908 4:-0.097506784 5:0.5625 6:0.11194196 7:0.40158731 
-0 -1 0 0 1:1 2:0.99444258 3:0.14301191 4:0.14284329 5:0.5625 6:0.028236607 7:0 
-0 -1 0 0 1:1 2:0.94347996 3:-0.014540184 4:-0.01392327 5:0.5625 6:0.012053572 7:0.68888891 
-0.30899321712732469 -1 1 0.72511518324397739 1:1 2:-0.67968506 3:0.76415956 4:-0.76814502 5:1.7777778 6:0.020634921 7:1.1578125 
-0 -0.36920211464196978 0 0 1:1 2:0.99665439 3:-0.34093258 4:-0.34158233 5:1.7777778 6:0.0007936508 7:0.32433036 
-0 -1 0 0 1:1 2:0.99063563 3:-0.075819977 4:-0.075787641 5:0.5625 6:0.0025669644 7:0.59543651 
-0 -1 0 0 1:1 2:0.9730826 3:-0.2379231 4:-0.2370667 5:0.5625 6:0.0033482143 7:0.48869047 
-1 -1 0 0 1:1 2:0.97971785 3:-0.7156468 4:-0.71427578 5:0.5625 6:0.64464283 7:0.47142857 
-0 -0.072927455637264799 0 0 1:1 2:0.91147578 3:-0.035797093 4:-0.039010257 5:0.5625 6:0 7:0.68452382 
-0 -0.62090442017256886 0 0 1:1 2:0.98309577 3:0.052198097 4:0.050196808 5:0.5625 6:0.2719866 7:0.63373017 
-0 -0.45655692822146116 0 0 1:1 2:0.94997609 3:-0.034932505 4:-0.03468892 5:1.7777778 6:0.0003968254 7:0.60089284 
-0.50783043026936669 -1 0.3950412616287326 1 1:1 2:0.71591848 3:0.14176629 4:0.13343886 5:0.5625 6:0.99631697 7:0.340873 
-0 -1 0 0 1:1 2:0.9688133 3:-0.34299624 4:-0.3417252 5:0.5625 6:0.0025669644 7:0.42182541 
-0 -1 0 0 1:1 2:0.97945076 3:0.086116642 4:0.08657112 5:0.5625 6:0.24408482 7:0.70257938 
-0 -0 0 0.084748923005701401 1:1 2:0.73278421 3:0.54594684 4:0.50677514 5:0.5625 6:0.13883929 7:0.85892856 
-0.56283226352089033 -1 0 0 1:1 2:0.98640317 3:-0.65245509 4:-0.65298229 5:0.5625 6:0.38359374 7:0.33988094 
-1 -0 0 0 1:1 2:0.59741527 3:-0.21257955 4:-0.21350615 5:0.5625 6:0.018080357 7:0.43948412 
-0 -1 0 0 1:1 2:0.97462142 3:-0.44103202 4:-0.44027478 5:0.5625 6:0.0036830357 7:0.28015873 
-0 -0.77441183906305355 0 0 1:1 2:0.97158813 3:0.30261084 4:0.30184603 5:0.5625 6:0.50066966 7:1.0271826 
-0 -1 0 0 1:1 2:0.9786818 3:-0.032496441 4:-0.032360855 5:0.5625 6:0.059486609 7:0.0099206353 
-0 -0 0.077593280800454037 0 1:1 2:0.89162695 3:0.28959426 4:0.2823216 5:1.7777778 6:0.13412699 7:1.2546875 
-0 -1 0 0 1:1 2:0.92186642 3:-0.31957912 4:-0.31848004 5:0.5625 6:0 7:0.62043649 
-1 -0 0 0 1:1 2:0.88701594 3:-0.33104953 4:-0.3301931 5:0.5625 6:0.22868304 7:0.055555556 
-0 -1 0 0 1:1 2:0.96437299 3:-0.16926476 4:-0.16899291 5:0.5625 6:0.025223214 7:0.022619048 
-0 -1 0 0 1:1 2:0.96963608 3:-0.13391083 4:-0.13549498 5:0.5625 6:0.20357142 7:0.69365078 
-1 -1 0 0 1:1 2:0.17527094 3:-0.30818599 4:-0.22527333 5:0.5625 6:0.061607141 7:0.66488093 
-0 -1 0 0 1:1 2:0.99321038 3:-0.27010083 4:-0.27002662 5:0.5625 6:0.099441968 7:1.2132937 
-0 -1 0 0 1:1 2:0.94502258 3:-0.56620252 4:-0.56597149 5:0.5625 6:0.075781249 7:0.36746031 
-0 -1 0 0 1:1 2:0.96558666 3:-0.2848447 4:-0.28507051 5:0.5625 6:0.010379464 7:0.23630953 
-0 -1 0 0 1:1 2:0.99711269 3:-0.58363301 4:-0.58425766 5:0.5625 6:0.12745535 7:0.30714285 
-0 -1 0 0 1:1 2:0.97928035 3:-0.5853861 4:-0.5867666 5:0.5625 6:0.098883927 7:0.50833333 
-0 -1 0 0 1:1 2:0.9972716 3:-0.75328541 4:-0.75338703 5:0.5625 6:0.17109375 7:0.41329366 
-1 -0 0 0 1:1 2:0.65250134 3:-0.14071962 4:-0.14565589 5:0.5625 6:0.017299106 7:0.2638889 
-1 -0 1 1 1:1 2:0.9700194 3:0.40370789 4:0.39922053 5:1.7777778 6:0.16111112 7:0.18348214 
-0 -1 0 0 1:1 2:0.94785881 3:-0.12976046 4:-0.1313954 5:0.5625 6:0.033928573 7:0.0359127 
-0 -1 0 0 1:1 2:0.96532524 3:-0.42774034 4:-0.43060848 5:0.5625 6:0.034486607 7:0.49404761 
-0 -1 0 0.65410789617133436 1:1 2:0.91189659 3:0.18821602 4:0.18522754 5:0.5625 6:0.92912948 7:1.230754 
-1 -0 0 0 1:1 2:0.61338276 3:-0.14009452 4:-0.1536794 5:0.5625 6:0.36785713 7:0.53075397 
-0 -1 0 0 1:1 2:0.87802315 3:-0.37201536 4:-0.37536234 5:0.5625 6:0.01015625 7:0.65138888 
-0 -1 0 1 1:1 2:0.99554831 3:0.66589618 4:0.66267937 5:0.5625 6:0 7:0 
-0 -0.53566115840665074 0 0 1:1 2:0.9766407 3:-0.3370069 4:-0.33721554 5:0.5625 6:0.022544643 7:0.40892857 
-0 -1 0 0 1:1 2:0.92185563 3:0.14121045 4:0.14438786 5:0.5625 6:0.029799107 7:0.69900793 
-0 -0.55033165894343605 0 0 1:1 2:0.9247337 3:0.28669548 4:0.29139912 5:0.5625 6:0 7:0.68769842 
-1 -1 0.49038982627610961 0 1:1 2:0.94879347 3:-0.5047788 4:-0.50431192 5:1.7777778 6:0.050396826 7:0.12198661 
-0 -1 0 0 1:1 2:0.98814726 3:-0.070264012 4:-0.07021901 5:0.5625 6:0.021875 7:0 
-0 -1 0 0 1:1 2:0.97700429 3:-0.042192813 4:-0.043176215 5:0.5625 6:0.00390625 7:0.72500002 
-0 -1 0 0 1:1 2:0.98032153 3:-0.078612618 4:-0.080593318 5:0.5625 6:0.0040178574 7:0.27559525 
-0 -1 0 0 1:1 2:0.97798061 3:-0.41851711 4:-0.41946289 5:0.5625 6:0.098325893 7:0.20376985 
-0 -1 0 0 1:1 2:0.95713913 3:0.058063474 4:0.055825014 5:0.5625 6:0.026339285 7:0.59464288 
-1 -0 0 0 1:1 2:0.36691198 3:-0.096690938 4:-0.078726664 5:0.5625 6:0.23482142 7:0.50376981 
-0 -1 0 0.79197458499745588 1:1 2:0.84168255 3:0.00055403775 4:-0.011146766 5:0.5625 6:1.2790178 7:0.76587301 
-1 -0 0 0 1:1 2:0.8876363 3:-0.092801861 4:-0.10059239 5:1.7777778 6:0.015079365 7:0.092968747 
-0 -1 0 0 1:1 2:0.95639002 3:-0.64226204 4:-0.64248705 5:0.5625 6:0.22857143 7:0.81289685 
-0 -1 0 0 1:1 2:0.63306624 3:-0.029689519 4:-0.010136189 5:0.5625 6:0.012834822 7:1.3948413 
-0 -1 0 0 1:1 2:0.98781395 3:-0.32921398 4:-0.3289656 5:0.5625 6:0.016852679 7:0.175 
-0 -1 0 0 1:1 2:0.8848775 3:0.1560587 4:0.15327907 5:0.5625 6:0.0095982142 7:0.76150793 
-0 -1 0 0 1:1 2:0.95589066 3:0.25761372 4:0.26347965 5:0.5625 6:0.0032366072 7:0.8660714 
-0 -1 0 0 1:1 2:0.97770154 3:-0.61041868 4:-0.61563468 5:0.5625 6:0.14319196 7:0.72222221 
-0 -1 0 0 1:1 2:0.95079547 3:-0.06874121 4:-0.070381641 5:0.5625 6:0.0035714286 7:0.62281746 
-1 -1 1 0.47916913318688481 1:1 2:0.43443123 3:0.65575874 4:0.22230957 5:0.5625 6:0.017745536 7:0.30972221 
-0 -1 0 1 1:1 2:0.85822451 3:0.35626987 4:0.34670904 5:0.5625 6:0.67611605 7:0.36408731 
-0 -0.16233315617212815 0 0 1:1 2:0.92907226 3:-0.49197 4:-0.48927 5:0.5625 6:0.46796876 7:0.91309524 
-0 -0.88978841196750169 0 0 1:1 2:0.93877542 3:0.1269293 4:0.12449318 5:1.7777778 6:0.14424603 7:0.72600448 
-0 -0.18541527659275742 0 0 1:1 2:0.72747678 3:0.26918548 4:0.282132 5:0.5625 6:0.0011160715 7:0.53353173 
-0 -1 0 0 1:1 2:0.98585707 3:-0.48315078 4:-0.48419243 5:0.5625 6:0.17466518 7:1.1573412 
-0 -1 0 0 1:1 2:0.95683533 3:0.094531961 4:0.09479662 5:0.5625 6:0.038169641 7:0.84603173 
-0 -1 0 0 1:1 2:0.98228753 3:0.18242235 4:0.1828059 5:0.5625 6:0.00011160714 7:1.0275793 
-0 -0 0 1 1:1 2:0.85876989 3:0.63872135 4:0.63843477 5:0.5625 6:0.33337054 7:0.77123016 
-0 -1 0 0 1:1 2:0.95395452 3:0.13912739 4:0.14417474 5:0.5625 6:0.0171875 7:0.79384923 
-0 -1 0 0 1:1 2:0.93627149 3:-0.19505021 4:-0.19560638 5:0.5625 6:0.033370536 7:1.2555555 
-0 -1 0 0 1:1 2:0.99197692 3:-0.28366235 4:-0.28405404 5:0.5625 6:0.0095982142 7:0.42777777 
-0 -1 0 0 1:1 2:0.92986614 3:0.6339587 4:0.63258195 5:0.5625 6:0.047321428 7:1.8430556 
-0 -1 0 0 1:1 2:0.97564918 3:-0.42934728 4:-0.43656075 5:0.5625 6:0.0072544641 7:0.26468253 
-0 -1 0 0 1:1 2:0.97355342 3:-0.088443309 4:-0.088728324 5:0.5625 6:0 7:0 
-0 -1 0.73274175150210974 1 1:1 2:0.75758201 3:0.80097115 4:0.60403085 5:0.5625 6:0.058370534 7:0.42936507 
-0 -0.13637421309273931 0 0 1:1 2:0.99543613 3:0.19671465 4:0.19654335 5:0.5625 6:0.023549108 7:0.0031746032 
-0 -1 0 0 1:1 2:0.94268769 3:-0.53940028 4:-0.53930807 5:0.5625 6:0.18314733 7:1.0055555 
-0 -1 0 0 1:1 2:0.96649116 3:0.0053916862 4:0.0052869753 5:0.5625 6:0.019754464 7:0.043650795 
-0 -1 0 1 1:1 2:0.90151787 3:0.77520937 4:0.73741031 5:0.5625 6:0.052343749 7:1.6251984 
-1 -0 0 0 1:1 2:0.78767347 3:-0.18363325 4:-0.18548675 5:0.5625 6:0.21250001 7:0.2265873 
-1 -0 0 1 1:1 2:0.5944826 3:0.48584205 4:0.44293171 5:0.5625 6:0.15223214 7:0.30753967 
-0 -1 0 0 1:1 2:0.98645383 3:-0.057487518 4:-0.05833276 5:0.5625 6:0.19665179 7:0.69365078 
-0 -1 0 0 1:1 2:0.99532437 3:-0.58550107 4:-0.58793539 5:0.5625 6:0.17901786 7:0.21448413 
-0 -1 0 0.062687750233914902 1:1 2:0.92150193 3:0.44681156 4:0.44541678 5:0.5625 6:0.5610491 7:1.7357143 
-0 -1 0 0 1:1 2:0.96975172 3:-0.010175261 4:-0.011406174 5:0.5625 6:0.2360491 7:0.68214285 
-0 -1 0 0 1:1 2:0.9730249 3:0.26193556 4:0.25901452 5:1.7777778 6:0.0079365084 7:0.61149555 
-0 -1 0 0 1:1 2:0.98238373 3:-0.11277437 4:-0.11206593 5:0.5625 6:0.089620538 7:0.0049603176 
-0 -1 0 0 1:1 2:0.98498666 3:0.14670761 4:0.14757884 5:0.5625 6:0.0077008926 7:0.94087303 
-0 -0.53798781867651024 0 0 1:1 2:0.98273975 3:-0.18840832 4:-0.18845616 5:0.5625 6:0.046763394 7:0.6470238 
-0 -1 0 0 1:1 2:0.98361146 3:-0.44178119 4:-0.44619837 5:0.5625 6:0.018191963 7:0.1813492 
-0 -0.27862632305360058 0 0 1:1 2:0.89917511 3:-0.10267177 4:-0.10585611 5:0.5625 6:0.082700893 7:1.5488095 
-0 -0.3646304346913542 0 0 1:1 2:0.82210052 3:0.67785335 4:0.63490266 5:0.5625 6:0.00011160714 7:1.1517857 
-0 -0 0 1 1:1 2:0.96854639 3:0.54589182 4:0.54587221 5:0.5625 6:0.24587053 7:0.60555553 
-0 -1 0 0 1:1 2:0.98920971 3:0.033004154 4:0.026652532 5:0.5625 6:0 7:0.2468254 
-0 -1 0 0 1:1 2:0.96209127 3:0.4929572 4:0.46775806 5:0.5625 6:0 7:0 
-0 -0.71087844202577011 0 0 1:1 2:0.96192741 3:-0.060272101 4:-0.061616182 5:0.5625 6:0.1328125 7:0.69940478 
-0 -1 0 0 1:1 2:0.97156024 3:0.052882861 4:0.045558169 5:0.5625 6:0.0020089287 7:0.050000001 
-0 -1 0 0 1:1 2:0.9755491 3:-0.13507874 4:-0.13471973 5:0.5625 6:0.22098215 7:0.73194444 
-0 -0.76476384457427593 0 0 1:1 2:0.97939861 3:0.18141761 4:0.18086968 5:1.7777778 6:0.15496032 7:0.88861609 
-0 -0.75853351106642208 0 0 1:1 2:0.99355257 3:0.42373186 4:0.423529 5:0.5625 6:0.016852679 7:0 
-0 -1 0 0 1:1 2:0.92162561 3:-0.47705463 4:-0.49463758 5:0.5625 6:0.0020089287 7:0.82123017 
-0 -1 0 0 1:1 2:0.94121742 3:-0.31142196 4:-0.33594379 5:0.5625 6:0.0018973214 7:0.70615077 
-0 -1 0 0 1:1 2:0.97286028 3:-0.0013255008 4:-0.0027965005 5:0.5625 6:0.039174106 7:0.019841271 
-0 -1 0 0 1:1 2:0.96726537 3:0.026827009 4:0.023814021 5:0.5625 6:0.008816964 7:0.74246031 
-0 -1 0 0 1:1 2:0.98024046 3:0.019247103 4:0.019039052 5:0.5625 6:0.012946429 7:0.43710318 
-1 -0 0 0 1:1 2:0.64401865 3:-0.11749302 4:-0.11020149 5:0.5625 6:0.13928571 7:0.28869048 
-0 -0.97826141143032841 0 0 1:1 2:0.96779323 3:-0.18671396 4:-0.18656507 5:0.5625 6:0.02578125 7:0.64484125 
-0 -1 0 1 1:1 2:0.96659952 3:0.44640157 4:0.44645554 5:0.5625 6:0.40703124 7:0 
-0 -0.76541104678526328 0 0 1:1 2:0.98842418 3:-0.63965148 4:-0.6425612 5:0.5625 6:0.40524554 7:0.54464287 
-0 -1 0 0 1:1 2:0.99709672 3:-0.57675701 4:-0.57682347 5:0.5625 6:0.0014508929 7:0.2468254 
-0 -0.25109938623256073 0 0 1:1 2:0.96874386 3:0.29431355 4:0.28106603 5:1.7777778 6:0.079960316 7:0.7592634 
-1 -1 0 0 1:1 2:0.96423435 3:-0.41406688 4:-0.41687816 5:0.5625 6:0.05078125 7:0.042658731 
-0 -1 0 0 1:1 2:0.98113787 3:-0.23059346 4:-0.23125161 5:0.5625 6:0.016852679 7:0.28194445 
-0 -1 0 0 1:1 2:0.93563318 3:-0.44468105 4:-0.44508258 5:0.5625 6:0.67310268 7:0.74345237 
-1 -0 0 0 1:1 2:0.4175044 3:0.047635458 4:-0.050923776 5:0.5625 6:0.43281251 7:0.64801586 
-0 -1 0 0 1:1 2:0.80881453 3:-0.31519327 4:-0.28483626 5:1.7777778 6:0.0079365084 7:0.60948658 
-0 -1 0 0 1:1 2:0.96580225 3:-0.47193295 4:-0.4719393 5:0.5625 6:0.021875 7:0.33849207 
-0 -0.0063382139582480179 0 0 1:1 2:0.98037076 3:0.080719396 4:0.07858 5:0.5625 6:0.025669644 7:0.024007937 
-0 -1 0 0 1:1 2:0.95347345 3:-0.27243447 4:-0.27300563 5:0.5625 6:0.58504462 7:0.29642856 
-0 -1 0 0 1:1 2:0.98439091 3:0.0046530641 4:0.0034672916 5:0.5625 6:0.026674107 7:1.5210317 
-1 -1 0 0 1:1 2:0.8573752 3:-0.47011873 4:-0.46908972 5:0.5625 6:0.044308037 7:0.3172619 
-0 -0.81216445715647467 0 0 1:1 2:0.99415529 3:-0.50427896 4:-0.50533813 5:1.7777778 6:0.032539684 7:0.7262277 
-0 -1 0 0 1:1 2:0.90687937 3:0.68117142 4:0.60199887 5:0.5625 6:0.059598215 7:1.8450397 
-0 -1 0 0 1:1 2:0.96490496 3:0.12234555 4:0.11778097 5:0.5625 6:0.0099330358 7:0.93988097 
-0 -0.30777700942951575 0 0 1:1 2:0.97366977 3:-0.042423151 4:-0.043004464 5:0.5625 6:0.1453125 7:0.66944444 
-0 -1 0 0 1:1 2:0.96399891 3:-0.1829199 4:-0.18366469 5:0.5625 6:0.0091517856 7:0.19325396 
-0 -0.26602492048168691 0 0 1:1 2:0.96285599 3:-0.21809204 4:-0.22022592 5:1.7777778 6:0.27916667 7:0.66104913 
-0 -1 0 0 1:1 2:0.96727169 3:-0.016558031 4:-0.020854887 5:0.5625 6:0 7:0.64444447 
-0 -1 0 0 1:1 2:0.98928487 3:-0.62684041 4:-0.62806118 5:0.5625 6:0.041629463 7:0.50396824 
-1 -0 0 0 1:1 2:0.46923527 3:0.0051080249 4:0.00099720282 5:0.5625 6:0.2719866 7:0.57718253 
-0 -0 0.25733801069940127 0.79125524360626232 1:1 2:0.9247188 3:0.39566359 4:0.39164364 5:1.7777778 6:0.18809524 7:0.61495537 
-0 -1 0 0 1:1 2:0.98605675 3:-0.33883381 4:-0.33913168 5:0.5625 6:0.043973215 7:0.61825395 
-1 -1 1 0 1:1 2:0.24196738 3:0.19515876 4:-0.45191795 5:0.5625 6:0.0052455356 7:0.0007936508 
-1 -1 0 0 1:1 2:0.7091794 3:-0.41465941 4:-0.42033345 5:0.5625 6:0.24252231 7:0.70158732 
-0 -0.81015540958752386 0 0 1:1 2:0.98243433 3:-0.1100449 4:-0.10992979 5:0.5625 6:0.097879462 7:0.015674604 
-1 -0 0 0 1:1 2:0.38530272 3:0.057839546 4:-0.023277907 5:0.5625 6:0.190625 7:0.45257938 
-1 -1 0.43938973647105722 0.21695881528251093 1:1 2:0.99314475 3:-0.75531924 4:-0.75795287 5:0.5625 6:0.41138393 7:0.19484127 
-0 -1 0 0 1:1 2:0.97633034 3:-0.28530359 4:-0.28662297 5:0.5625 6:0.012388393 7:0.33492064 
-0 -1 0 1 1:1 2:0.95304853 3:0.78390473 4:0.76566482 5:0.5625 6:0.053348213 7:0.50337303 
-0 -1 0 0 1:1 2:0.93502724 3:-0.49896246 4:-0.50071126 5:0.5625 6:0.047767859 7:0.45714286 
-0 -1 0 0 1:1 2:0.98653966 3:0.23176007 4:0.22458923 5:0.5625 6:0.0041294643 7:0.50138891 
-0 -1 0 0 1:1 2:0.96614623 3:0.23140346 4:0.218466 5:0.5625 6:0.0041294643 7:0.64107144 
-0 -0.58585930588764334 0 0 1:1 2:0.95283085 3:0.058723796 4:0.060794957 5:0.5625 6:0.050111607 7:0.83809525 
-0 -1 0 0 1:1 2:0.97018075 3:-0.24108227 4:-0.24182713 5:0.5625 6:0.00078125001 7:0.30039683 
-0 -1 0 0 1:1 2:0.99085736 3:-0.29589456 4:-0.29606026 5:0.5625 6:0.033593751 7:1.3430556 
-0 -1 0 1 1:1 2:0.9615469 3:0.66238403 4:0.66420698 5:0.5625 6:0.047767859 7:0.090674601 
-0 -0.55469739066282631 0 0 1:1 2:0.97540182 3:0.13050869 4:0.13025601 5:1.7777778 6:0.062301587 7:0.67767859 
-0 -1 0 0 1:1 2:0.94455278 3:-0.57412744 4:-0.57601941 5:0.5625 6:0.0032366072 7:0.38055557 
-0 -1 0 0 1:1 2:0.98481101 3:-0.36156201 4:-0.36980537 5:0.5625 6:0.020535715 7:0.28551587 
-0 -1 0 0 1:1 2:0.98670328 3:-0.44922188 4:-0.45067346 5:0.5625 6:0.058370534 7:0.25119048 
-0 -1 0 0 1:1 2:0.97656322 3:0.15644315 4:0.15183665 5:0.5625 6:0.034375001 7:0.77182537 
-1 -0 0 0 1:1 2:0.80099899 3:-0.25827107 4:-0.26534456 5:0.5625 6:0.069308035 7:0.20833333 
-0 -1 0 0 1:1 2:0.98447889 3:-0.42013755 4:-0.42238724 5:0.5625 6:0.022767857 7:0.66051584 
-1 -0 0 0 1:1 2:0.87698162 3:-0.34905657 4:-0.35003489 5:0.5625 6:0.26674107 7:0.2484127 
-1 -0 0 0 1:1 2:0.67522496 3:-0.030811351 4:-0.056173068 5:0.5625 6:0.065959819 7:0.17123015 
-1 -0 0 0 1:1 2:0.83203834 3:-0.052429862 4:-0.04097838 5:0.5625 6:0.1671875 7:0.018650794 
-0 -0.56638052142228013 0 0 1:1 2:0.99087489 3:-0.25812879 4:-0.25823972 5:1.7777778 6:0.0043650796 7:0.59587055 
-1 -0.68994123932360429 0 0 1:1 2:0.93561697 3:-0.37615299 4:-0.37559083 5:1.7777778 6:0.0015873016 7:0.17075893 
-0 -1 0 0 1:1 2:0.96645409 3:-0.3573899 4:-0.35609695 5:0.5625 6:0.46651787 7:1.4805555 
-0 -0.088266718215765497 0 0 1:1 2:0.97589648 3:0.028664585 4:0.025713418 5:0.5625 6:0.0296875 7:0.74384922 
-1 -0 0 0 1:1 2:0.8598305 3:-0.37877369 4:-0.39194429 5:0.5625 6:0.14508928 7:0.24126984 
-1 -1 0 0 1:1 2:0.29382238 3:0.045622364 4:0.04619642 5:0.5625 6:0.1655134 7:0.3392857 
-0 -0.8700811724794163 0 0 1:1 2:0.97228259 3:0.071142077 4:0.0667402 5:0.5625 6:0.24698661 7:0.75853175 
-0 -1 0 0 1:1 2:0.98410612 3:-0.13889806 4:-0.13834305 5:0.5625 6:0.20892857 7:0.63730156 
-1 -1 0 0 1:1 2:0.94689131 3:-0.24280907 4:-0.2442831 5:1.7777778 6:0.011706349 7:0 
-0 -1 0 0 1:1 2:0.98533034 3:-0.35218266 4:-0.36024237 5:0.5625 6:0.01953125 7:0.18730159 
-1 -0 0 0 1:1 2:0.71188474 3:-0.050900094 4:-0.045856263 5:0.5625 6:0.12433036 7:0.17023809 
-0 -1 0 0 1:1 2:0.9859336 3:-0.050060563 4:-0.051920455 5:0.5625 6:0.026674107 7:0.68650794 
-0 -0.21024079188718542 0 0 1:1 2:0.97155339 3:-0.034832653 4:-0.035789859 5:0.5625 6:0.14441964 7:0.76626986 
-0 -0.032866643723828991 0 0 1:1 2:0.96440667 3:-0.010157499 4:-0.013557934 5:0.5625 6:0.20078126 7:0.6996032 
-0.11406255494850635 -0.029886240738356495 0 0 1:1 2:0.6517089 3:0.17340766 4:0.12700431 5:1.7777778 6:0.13015874 7:0.97946429 
-0 -1 0 0 1:1 2:0.97064167 3:-0.10079034 4:-0.10080239 5:0.5625 6:0.2779018 7:0.61428571 
-0 -0.27510491002117543 0 0 1:1 2:0.99022746 3:-0.31907585 4:-0.3200345 5:1.7777778 6:0.0001984127 7:0.55223215 
-0 -1 0 0 1:1 2:0.94840103 3:-0.3904984 4:-0.40757984 5:0.5625 6:0.046651784 7:0.19781746 
-1 -0 0 0 1:1 2:0.63834757 3:-0.01209431 4:-0.0088854227 5:0.5625 6:0.015178571 7:0.24126984 
-1 -0 0 0 1:1 2:0.36290082 3:0.10401822 4:0.055165175 5:0.5625 6:0.15178572 7:0.46349207 
-0 -1 0 0 1:1 2:0.98121291 3:-0.12536372 4:-0.12664141 5:0.5625 6:1.0197544 7:0.82996035 
-0 -1 0 0 1:1 2:0.98043269 3:-0.11149088 4:-0.11244094 5:0.5625 6:0.0077008926 7:0.6761905 
-0 -1 0 0 1:1 2:0.99708545 3:-0.35468623 4:-0.35477421 5:0.5625 6:0.0125 7:0.23968254 
-0 -1 0 0 1:1 2:0.72619241 3:-0.32486454 4:-0.32380518 5:0.5625 6:0.020647321 7:0.4343254 
-0 -1 0 0 1:1 2:0.97594088 3:0.066902071 4:0.070169367 5:0.5625 6:0.23872767 7:0.80138886 
-1 -1 0 0 1:1 2:0.97653705 3:-0.72203904 4:-0.7210657 5:0.5625 6:0.17622767 7:0.31904763 
-0 -0.20268788783500591 0 0 1:1 2:0.96511972 3:-0.054775491 4:-0.055785622 5:0.5625 6:0.015178571 7:0.49722221 
-0 -0.72044820515682728 0 0 1:1 2:0.94607222 3:0.1759522 4:0.17498675 5:0.5625 6:0.019642858 7:0.87380952 
-0 -0.87732282164946163 0 0 1:1 2:0.91390288 3:-0.3240186 4:-0.3311998 5:0.5625 6:0.018750001 7:0.22301587 
-0 -1 0 0 1:1 2:0.97281277 3:0.072510615 4:0.072377294 5:0.5625 6:0.013504464 7:0.027777778 
-1 -0.945327580336489 0 0 1:1 2:0.47274023 3:0.055571824 4:0.018835047 5:0.5625 6:0.13526785 7:0.18888889 
-1 -0 0 0 1:1 2:0.77734548 3:-0.21840881 4:-0.21768446 5:0.5625 6:0.10479911 7:0.14007936 
-1 -0 0 0 1:1 2:0.517672 3:-0.071842782 4:-0.10078968 5:0.5625 6:0.58604908 7:0.63849205 
-0 -1 0 0 1:1 2:0.99244571 3:-0.2599791 4:-0.25989634 5:0.5625 6:0.039285716 7:0.8668651 
-1 -0 0 0 1:1 2:0.94422799 3:-0.56842947 4:-0.57176441 5:1.7777778 6:0.024801588 7:0.31953126 
-0 -1 0 0 1:1 2:0.99283218 3:-0.4205839 4:-0.4206897 5:0.5625 6:0.0025669644 7:0.40357143 
-0.52024226246014138 -1 0.63594398582213818 0.22612204782596038 1:1 2:0.93535513 3:-0.098536484 4:-0.10223835 5:0.5625 6:1.5296875 7:0.7045635 
-0 -0 0 1 1:1 2:0.94320285 3:0.59404474 4:0.59356815 5:0.5625 6:0.10959821 7:0.31150794 
-0 -1 0 0 1:1 2:0.99025565 3:0.023553308 4:0.02072913 5:0.5625 6:0.24921875 7:0.8035714 
-0 -0.25086899792419043 0 0 1:1 2:0.94684392 3:-0.10731708 4:-0.10519628 5:0.5625 6:0.21037947 7:0.65198416 
-1 -0 0 0 1:1 2:0.44765583 3:-0.06767904 4:-0.13106954 5:0.5625 6:0.084598213 7:0.59146827 
-1 -1 0 0 1:1 2:0.28359061 3:-0.041718196 4:-0.067202836 5:0.5625 6:0.17366071 7:0.47142857 
-0 -1 0 0 1:1 2:0.92194217 3:-0.13757774 4:-0.13105826 5:0.5625 6:0.0013392858 7:0.60674602 
-0 -1 0 0 1:1 2:0.99245089 3:-0.38842681 4:-0.38919464 5:0.5625 6:0.06841518 7:0.24464285 
-1 -0 0 0 1:1 2:0.32727966 3:0.03721451 4:-0.029338414 5:0.5625 6:0.088169642 7:0.44861111 
-0 -1 0 0 1:1 2:0.94691741 3:0.2033103 4:0.20260631 5:0.5625 6:0 7:0.70615077 
-0 -1 0 0 1:1 2:0.97263986 3:-0.49100041 4:-0.49096116 5:1.7777778 6:0 7:0.63180804 
-0.82009745797648548 -0 0 0 1:1 2:0.61033005 3:-0.032771699 4:-0.041921776 5:0.5625 6:0.11752232 7:0.33789682 
-1 -0 0 0 1:1 2:0.42213735 3:0.01157504 4:-0.021618182 5:0.5625 6:0.38080359 7:0.7517857 
-0.96730915850512622 -1 0.71910304940015923 0.73553304797072905 1:1 2:0.58688271 3:0.10901776 4:0.11861864 5:0.5625 6:0.98772323 7:1.7722223 
-0 -1 0 0 1:1 2:0.96927804 3:0.0717557 4:0.070511602 5:0.5625 6:0.0045758928 7:0.44444445 
-1 -1 0 0 1:1 2:0.99025869 3:-0.67327023 4:-0.67797256 5:0.5625 6:0.096205354 7:0.18789683 
-0 -1 0 0 1:1 2:0.96813482 3:-0.32284403 4:-0.3331705 5:0.5625 6:0.06261161 7:1.096627 
-1 -0 0 0 1:1 2:0.64009219 3:0.030525524 4:-0.0029190765 5:0.5625 6:0.037611607 7:0.20952381 
-0 -0.64627168928122225 0 0 1:1 2:0.96196204 3:-0.23602109 4:-0.23690502 5:0.5625 6:0.016294643 7:0.92202383 
-0 -1 0 0 1:1 2:0.86692351 3:-0.040885016 4:-0.042496275 5:0.5625 6:0.6253348 7:0.28630951 
-1 -1 0 0 1:1 2:0.18136984 3:-0.15309899 4:-0.16017048 5:0.5625 6:0.27812499 7:0.7621032 
-0 -1 0 0 1:1 2:0.97825271 3:-0.24624912 4:-0.24640948 5:0.5625 6:0.00390625 7:0.55158728 
-0 -1 0 0 1:1 2:0.95355868 3:0.057151441 4:0.056858636 5:1.7777778 6:0.32043651 7:0.80189735 
-0 -0.91068622363563412 0 1 1:1 2:0.98518217 3:0.57767987 4:0.57685792 5:0.5625 6:0.16796875 7:0.00059523812 
-1 -0 0 0 1:1 2:0.73582971 3:-0.29695693 4:-0.31852481 5:0.5625 6:0.18091518 7:0.30396825 
-0 -1 0 0 1:1 2:0.90739948 3:-0.53326195 4:-0.54102099 5:0.5625 6:0.062053572 7:0.91170633 
-0 -0.25806344327654807 0 0 1:1 2:0.90720958 3:-0.45900017 4:-0.45993286 5:0.5625 6:0.21540178 7:1.0944444 
-0 -0.63603108612201442 0 0.66764398616314236 1:1 2:0.98659796 3:0.69116658 4:0.69183666 5:0.5625 6:0.11484375 7:1.6109127 
-0 -1 0 0 1:1 2:0.98116952 3:-0.19414873 4:-0.19519886 5:1.7777778 6:0.0059523811 7:0.56495535 
-0 -1 0 0 1:1 2:0.97865385 3:-0.52517498 4:-0.52457404 5:0.5625 6:0.017522322 7:0.30019841 
-0.4868918813958284 -0 0 0 1:1 2:0.41440815 3:-0.078375973 4:-0.077799745 5:0.5625 6:0.19453125 7:0.79781747 
-0 -1 0 0 1:1 2:0.9822734 3:0.076102309 4:0.077518627 5:0.5625 6:0.14620535 7:0.76944447 
-1 -0 0 0 1:1 2:0.89980853 3:-0.19421037 4:-0.20056641 5:1.7777778 6:0.0013888889 7:0.12131696 
-1 -0 0 0 1:1 2:0.49841252 3:-0.0035896227 4:-0.019863544 5:0.5625 6:0.27700892 7:0.54642856 
-1 -0 0 0 1:1 2:0.66838968 3:-0.050902884 4:-0.035576712 5:0.5625 6:0.36752233 7:0.23115079 
-0 -0.038774329775743528 0 0 1:1 2:0.84690958 3:-0.30947474 4:-0.33269656 5:0.5625 6:0.0072544641 7:0.72619045 
-1 -0 0 0 1:1 2:0.44579139 3:-0.13434349 4:-0.12263988 5:0.5625 6:0.19687501 7:0.79126984 
-0 -0.0094441904934786988 0 0 1:1 2:0.95420957 3:-0.052820709 4:-0.055194966 5:0.5625 6:0.031696428 7:1.2912699 
-0 -0.0092033542233241582 0 0 1:1 2:0.87174827 3:0.14621444 4:0.1509238 5:0.5625 6:0.032142859 7:0.82579362 
-0 -1 0 0 1:1 2:0.92613667 3:-0.47426754 4:-0.47856557 5:0.5625 6:0.011160715 7:0.55654764 
-0 -1 0 0 1:1 2:0.990403 3:-0.40374592 4:-0.40351412 5:0.5625 6:0.0018973214 7:0.25714287 
-0 -1 0 0 1:1 2:0.99164468 3:-0.00032652856 4:-0.00071196491 5:0.5625 6:0.0092633925 7:0.51686507 
-0 -1 0 0 1:1 2:0.98529404 3:-0.055334974 4:-0.055615298 5:0.5625 6:0.011495535 7:0 
-0 -0.48407063511968756 0 0 1:1 2:0.95191455 3:-0.16675784 4:-0.16729432 5:1.7777778 6:0.51726192 7:0.67667413 
-0 -1 0 0 1:1 2:0.91163623 3:-0.37131503 4:-0.38228104 5:0.5625 6:0.0012276786 7:0.35099205 
-0 -1 0 0 1:1 2:0.99727529 3:0.061139185 4:0.060790628 5:0.5625 6:0.00011160714 7:0 
-0 -0 0 1 1:1 2:0.94735157 3:0.66717756 4:0.66565669 5:0.5625 6:0.21941964 7:0.32440478 
-1 -0 0 0 1:1 2:0.82788181 3:-0.21049988 4:-0.2129302 5:0.5625 6:0.17109375 7:0.021825397 
-0 -1 0 0 1:1 2:0.97211951 3:0.12455264 4:0.12188728 5:1.7777778 6:0.023611112 7:0.66283482 
-1 -1 0 0 1:1 2:0.28146076 3:0.1036494 4:0.05920529 5:0.5625 6:0.37578124 7:0.51468253 
-1 -0 0 0 1:1 2:0.89919108 3:-0.42573938 4:-0.43526256 5:0.5625 6:0.30368304 7:0.31011903 
-1 -1 0 0.15304896794722833 1:1 2:0.27829966 3:0.10788491 4:0.15459454 5:0.5625 6:0.30524555 7:0.74027777 
-0 -0.064270417169847688 0 0 1:1 2:0.98815238 3:-0.18508297 4:-0.18527813 5:0.5625 6:0.17310268 7:0.62123019 
-1 -0 0 0 1:1 2:0.38366866 3:-0.011367462 4:-0.030197702 5:0.5625 6:0.2764509 7:0.84206349 
-0 -1 0.10797018579234396 1 1:1 2:0.97975332 3:0.65940249 4:0.65876043 5:0.5625 6:0.23125 7:0 
-1 -1 0.1987259343691942 0 1:1 2:0.090084605 3:-0.055111315 4:-0.14836377 5:0.5625 6:0.078794643 7:0.37777779 
-0 -0.95094684103530147 0 0 1:1 2:0.95244509 3:-0.082872346 4:-0.077059053 5:0.5625 6:0.27544641 7:0.69583333 
-0 -0.60572114896362617 0 0 1:1 2:0.99234188 3:-0.0092305066 4:-0.01110122 5:0.5625 6:0.017745536 7:0.1640873 
-0 -0.82384714934155379 0 0 1:1 2:0.97923672 3:-0.04889163 4:-0.049258575 5:0.5625 6:0.019419642 7:0.44166666 
-0 -1 0 0 1:1 2:0.97983986 3:-0.01768476 4:-0.017795395 5:0.5625 6:0.14441964 7:0.71686506 
-1 -0.014344338868022808 0 0 1:1 2:0.81745106 3:-0.37428021 4:-0.38320413 5:0.5625 6:0.080580354 7:0.17400794 
-0 -1 0 0 1:1 2:0.98174453 3:-0.16833405 4:-0.16874553 5:0.5625 6:0.018526785 7:0.74285716 
-1 -1 0 0 1:1 2:0.96791333 3:-0.58731014 4:-0.58845478 5:0.5625 6:0.029017856 7:0.13650794 
-0 -1 0 1 1:1 2:0.9829793 3:0.58775634 4:0.58673924 5:0.5625 6:0.29497766 7:0.010317461 
-1 -0 0 0 1:1 2:0.39210096 3:-0.013261018 4:-0.050931536 5:0.5625 6:0.22890624 7:0.77738094 
-0 -1 0 0 1:1 2:0.98575222 3:0.23387545 4:0.2342018 5:0.5625 6:0.0020089287 7:0.6924603 
-0 -0.0091011761191293061 0 0 1:1 2:0.98440611 3:-0.269851 4:-0.27139235 5:0.5625 6:0.027232142 7:0.49940476 
-0 -0.57599268435348394 0 0 1:1 2:0.9267444 3:0.495327 4:0.49681658 5:0.5625 6:0.043638393 7:1.8533731 
-0 -0.48748236756179075 0 0 1:1 2:0.9487834 3:0.127941 4:0.12876306 5:0.5625 6:0.037723213 7:0.60079366 
-0 -0.29151348179886816 0 0 1:1 2:0.95055395 3:0.022050204 4:0.024302196 5:0.5625 6:0.053125001 7:0.64861113 
-1 -1 0 0 1:1 2:0.98986536 3:-0.70219356 4:-0.70264983 5:0.5625 6:0.24810268 7:0.29365081 
-0 -1 0 0 1:1 2:0.98753911 3:0.12118485 4:0.11759062 5:0.5625 6:0 7:0.53392857 
-1 -0 0 0 1:1 2:0.5439983 3:-0.041670009 4:-0.049278885 5:0.5625 6:0.13772321 7:0.41289681 
-0 -1 0 0 1:1 2:0.97170097 3:-0.032410588 4:-0.035867047 5:0.5625 6:0.25870535 7:0.6623016 
-0 -1 0 0 1:1 2:0.91612726 3:0.01780415 4:0.018944219 5:0.5625 6:0.026785715 7:0.72559524 
-1 -0 0 0 1:1 2:0.39641449 3:0.070241772 4:0.0024606397 5:0.5625 6:0.085044645 7:0.32123017 
-0 -1 0 0 1:1 2:0.98275578 3:-0.24766578 4:-0.2472114 5:0.5625 6:0.011941965 7:0.094047621 
-1 -0 0 0 1:1 2:0.85228384 3:-0.60000402 4:-0.59694892 5:1.7777778 6:0.16051587 7:0.54843748 
-0 -1 0 0 1:1 2:0.98979199 3:-0.37104636 4:-0.37125877 5:0.5625 6:0.0625 7:0.71230161 
-1 -0 0 0 1:1 2:0.42245728 3:-0.039029423 4:-0.11219727 5:0.5625 6:0.066071428 7:0.62936509 
-0 -1 0 0 1:1 2:0.99110842 3:-0.55763668 4:-0.55754322 5:0.5625 6:0.21830358 7:0.20753968 
-1 -0 0 0 1:1 2:0.39856622 3:-0.12602496 4:-0.11572415 5:0.5625 6:0.36975446 7:0.78531748 
-1 -0.010151304897178855 0 0 1:1 2:0.55067134 3:0.31328595 4:0.2121194 5:0.5625 6:0.024665179 7:0.26468253 
-0 -1 0 0 1:1 2:0.98974651 3:0.20211791 4:0.19858502 5:0.5625 6:0.034263391 7:0.78849208 
-0 -1 0 0 1:1 2:0.95749271 3:0.17698716 4:0.17305192 5:0.5625 6:0.0052455356 7:0.75972223 
-0 -1 0 0 1:1 2:0.39792043 3:0.37318847 4:0.18879381 5:0.5625 6:0.0390625 7:1.1353174 
-0 -1 0 0 1:1 2:0.95365298 3:0.19481362 4:0.18816656 5:0.5625 6:0.0068080355 7:0.85436505 
-0 -1 0 0 1:1 2:0.99605095 3:-0.66632777 4:-0.66627449 5:0.5625 6:0.10580357 7:0.33690476 
-0 -1 0 0 1:1 2:0.94479173 3:-0.43756819 4:-0.44482061 5:0.5625 6:0 7:0.53452379 
-0 -1 0 0 1:1 2:0.99842352 3:0.11821833 4:0.11818316 5:0.5625 6:0.00089285715 7:0 
-0 -0 0 1 1:1 2:0.81840634 3:0.60009181 4:0.59873086 5:0.5625 6:0.034151785 7:0.73928571 
-0 -0.36250974413783499 0 0 1:1 2:0.98235273 3:-0.063046359 4:-0.064483233 5:0.5625 6:0.16841517 7:0.76170635 
-0 -1 0 0 1:1 2:0.98206645 3:0.054357886 4:0.051467314 5:0.5625 6:0.014508928 7:0.6111111 
-0 -1 0 0 1:1 2:0.9811514 3:0.0059715826 4:0.0065108761 5:0.5625 6:0.19486608 7:0.79087299 
-1 -0 0 0 1:1 2:0.48083255 3:-0.16518432 4:-0.16048804 5:0.5625 6:0.19040179 7:0.63670635 
-0 -1 0 0 1:1 2:0.98398805 3:-0.12980476 4:-0.13316217 5:1.7777778 6:0.32460317 7:0.37455356 
-0 -1 0 0 1:1 2:0.97588897 3:0.56172484 4:0.56046122 5:0.5625 6:0.056919642 7:1.8228174 
-0 -1 0 0 1:1 2:0.9853968 3:-0.17967437 4:-0.18009959 5:0.5625 6:0.011160715 7:0.48253968 
-0.27485690137880031 -1 0 0 1:1 2:0.9903757 3:-0.66465807 4:-0.6647644 5:0.5625 6:0.71886158 7:0.54642856 
-0 -1 0 1 1:1 2:0.95342511 3:0.67041034 4:0.6720165 5:0.5625 6:0.034375001 7:0.46150795 
-0 -1 0 0.94526484548847467 1:1 2:0.80814785 3:0.054063588 4:0.051804472 5:0.5625 6:1.1348214 7:1.1478175 
-1 -0 0 0 1:1 2:0.76921922 3:-0.21730433 4:-0.23541147 5:0.5625 6:0.0045758928 7:0.2297619 
-0 -1 0 0 1:1 2:0.98063815 3:-0.24869718 4:-0.24903065 5:0.5625 6:0.022098213 7:0.84940475 
-0.14546248215813054 -0.39029278357820607 -0.73110348435030914 1 1:1 2:0.19704406 3:0.80310655 4:0.19523267 5:1.125 6:1.1080357 7:1.3138889 
-0 -0 -0 0.79105171349886172 1:1 2:0.6414724 3:0.99501812 4:0.64133161 5:1.125 6:0.13683036 7:0.0063492064 
-0.39371878248847547 -0.56174097584858063 -0.6497253497749238 0.17483123359215749 1:1 2:-0.070984244 3:0.83310008 4:-0.071512431 5:1.125 6:0.51116073 7:1.3093253 
-0 -0 -0 1 1:1 2:0.76446033 3:0.95902473 4:0.7650876 5:1.125 6:2.0558035 7:0.32162699 
-0 -0.10134984297285936 -0 0 1:1 2:-0.59082395 3:0.94751674 4:-0.61190277 5:1.125 6:0.28281251 7:0.39345238 
-0 -0.2148775585011603 -0.10134538854780743 0 1:1 2:0.572936 3:0.93066889 4:0.56923294 5:1.125 6:1.5122768 7:0.77242064 
-0.01381233300015737 -0 -0 1 1:1 2:0.8673209 3:0.98280084 4:0.86763513 5:1.125 6:1.7524554 7:0.16488095 
-0.36454030418156746 -0 -0 0 1:1 2:0.14429988 3:0.63718164 4:0.17127854 5:1.125 6:0.03705357 7:0.17539683 
-0 -0 -0 1 1:1 2:0.82283956 3:0.98702252 4:0.82321119 5:1.125 6:1.9908482 7:0.17738095 
-0.65458119572104567 -0.53566725873905974 -0.26335050363209206 0 1:1 2:-0.55087745 3:0.78243095 4:-0.56233305 5:1.125 6:0.66562498 7:0.85396826 
-1 -1 -1 0.14374463643549315 1:1 2:-0.42403302 3:0.67133141 4:-0.42230949 5:1.125 6:0.064955354 7:0.60376984 
-0 -0.17490840563164001 -0.60932939957652366 1 1:1 2:0.67854756 3:0.9788143 4:0.67819196 5:1.125 6:0.37254465 7:0.42162699 
-1 -0 -0 0 1:1 2:-0.16142374 3:0.058748685 4:0.0099829854 5:1.125 6:0.72388393 7:0.080555558 
-0.08865465458881526 -0.091058177306730617 -0.10067218581100099 0.097012659805625262 1:1 2:0.19607522 3:0.99403673 4:0.19633144 5:3.5555556 6:1.7825397 7:0.15647322 
-0 -0 -0 1 1:1 2:0.81162429 3:0.96732181 4:0.81043893 5:1.125 6:1.5064732 7:0.32718253 
-0.024244569388475086 -0 -0 0 1:1 2:0.016213864 3:0.40572226 4:0.012760919 5:1.125 6:1.0412947 7:0.90079367 
-0.21996113663185812 -0 -0 0.17041011600913053 1:1 2:-0.46493033 3:0.80678207 4:-0.44055161 5:1.125 6:1.3725446 7:0.33789682 
-0.22320386757259966 -0 -0.10162066385290773 0 1:1 2:-0.0031889325 3:0.655119 4:-0.0002010365 5:1.125 6:0 7:0.60942459 
-0.70093928184904142 -0.52796109092657373 -0.66338815783525418 0.77519641922664206 1:1 2:0.51481545 3:-0.29661977 4:-0.71402675 5:3.5555556 6:1.3654761 7:0.054073662 
-0.530534525130269 -0.39567396726815607 -0.50550756298916244 0.56913024337255069 1:1 2:0.50919032 3:0.98648119 4:0.50713599 5:3.5555556 6:2.0791667 7:0.045591518 
-1 -0.69970369135143218 -1 0.019009087037959994 1:1 2:0.31836075 3:0.27728549 4:-0.35599592 5:1.125 6:0.48482144 7:0.040972222 
-1 -0 -0 0.49973932674004573 1:1 2:0.13791986 3:0.18323553 4:0.063952833 5:1.125 6:1.1102679 7:0.3266865 
-0 -0.18140813509586221 -0.33242810016302454 1 1:1 2:0.86584753 3:0.94910008 4:0.85251945 5:1.125 6:1.2912947 7:0.2029762 
-0.8164053963440695 -0.59651744204843049 -0.78418835857400071 0.87577314157332919 1:1 2:0.78845984 3:-0.66464394 4:-0.74190444 5:3.5555556 6:0.31805557 7:0.003627232 
-0.28885351532730436 -0.18487091388487398 -0.24965066326670815 0.28343163856174625 1:1 2:0.11219278 3:0.85786998 4:0.10926679 5:3.5555556 6:1.0001984 7:0.63470984 
-0.29949308596631241 -0.20760769445094421 -0.25742915068242334 0.26149542375768142 1:1 2:-0.43899715 3:0.92497593 4:-0.44141376 5:3.5555556 6:0.86706346 7:0.26289064 
-0 -0 -0 0.55717128707095398 1:1 2:0.85547972 3:0.96932334 4:0.85252482 5:1.125 6:1.3930804 7:0.00029761906 
-0.13576147544337527 -0.089280108531322178 -0.12326949627526879 0.17397251845112838 1:1 2:0.67382032 3:0.92745185 4:0.65224469 5:3.5555556 6:0.77579367 7:0.017857144 
-1 -0 -0 0 1:1 2:0.10517444 3:0.17137496 4:0.36956891 5:1.125 6:0.49441963 7:0.067261904 
-0.115509698996103 -0 -0 0 1:1 2:-0.15249681 3:0.39608821 4:-0.13746631 5:1.125 6:0.60468751 7:0.70446426 
-0.35818896785608995 -0.30243096429068939 -0.39402878606862218 0.47310588014162813 1:1 2:-0.45772666 3:0.96634698 4:-0.45858794 5:3.5555556 6:0.60813493 7:0.076953128 
